
\data\
ngram 1=85792

\1-grams:
-4.845355	"
-6.260328	"$0.01!!!
-5.959298	"$100
-6.260328	"'Agnostic,'"
-6.260328	"'I
-5.959298	"+2"
-6.260328	"-18"
-5.306086	"...
-6.260328	"..."
-6.260328	"0.9
-6.260328	"1.26"
-6.260328	"10,000
-6.260328	"100,
-6.260328	"15
-6.260328	"2001,"
-6.260328	"2001."
-5.783207	"2001:
-6.260328	"24"
-6.260328	"24,"
-5.959298	"24."
-6.260328	"25,000,
-6.260328	"25,0000,
-6.260328	"3
-6.260328	"3,000
-5.959298	"30
-6.260328	"35"
-5.959298	"3S"
-6.260328	"40
-6.260328	"4chan!"
-6.260328	"50
-6.260328	"6
-6.260328	"80-20
-6.260328	"99
-4.880117	"A
-5.959298	"A"
-6.260328	"Aaah,"
-5.959298	"Aah,
-6.260328	"About
-6.260328	"Abraham,
-6.260328	"Absolutely
-6.260328	"Absolutely,
-6.260328	"Abstract."
-6.260328	"Accelerator,
-6.260328	"Accounting
-6.260328	"Actually,
-6.260328	"Acumen
-6.260328	"Ad-hoc
-6.260328	"Adorn
-6.260328	"Advanced
-6.260328	"Aesop's
-5.658268	"Afghan
-5.959298	"Africa
-6.260328	"Africa:
-6.260328	"Afrikan
-5.959298	"After
-6.260328	"Against
-6.260328	"Agnes,
-6.260328	"Ah
-5.959298	"Ah!
-5.218935	"Ah,
-6.260328	"Aha!"
-6.260328	"Aha,
-6.260328	"Ahh!"
-5.959298	"Ahh,
-5.959298	"Aida"
-6.260328	"Aida,"
-5.959298	"Ain't
-6.260328	"Airplane."
-6.260328	"Al
-6.260328	"Aladdin,"
-6.260328	"Alex,
-6.260328	"Alice
-6.260328	"Aliens
-4.862388	"All
-6.260328	"Allegory
-6.260328	"Allegro."
-6.260328	"Allison,
-6.260328	"Although
-5.783207	"Always
-5.260328	"Am
-6.260328	"Amanda,
-6.260328	"Amazon.bomb."
-6.260328	"Amazon.toast."
-6.260328	"America,"
-6.260328	"America?
-5.561358	"American
-6.260328	"Among
-5.357238	"An
-4.741814	"And
-6.260328	"And,"
-6.260328	"Andy
-6.260328	"Animal
-6.260328	"Anonymous"
-5.658268	"Another
-6.260328	"Anthropologists
-5.783207	"Any
-6.260328	"Anyone
-5.783207	"Anything
-6.260328	"Apart
-5.959298	"Apollo
-6.260328	"Apology"
-6.260328	"Apple"
-6.260328	"Arabic
-4.981575	"Are
-6.260328	"Are,
-6.260328	"Aren't
-5.959298	"Aris,
-6.260328	"Arrive"
-6.260328	"Arrrrggg!"
-6.260328	"Art
-6.260328	"Art?"
-5.218935	"As
-6.260328	"Asbury
-6.260328	"Aside
-5.783207	"Ask
-6.260328	"Ass-head.
-5.959298	"Asshead.
-5.658268	"At
-6.260328	"AudioPoet"
-6.260328	"Autumn
-6.260328	"Avunclear."
-6.260328	"Aw,
-6.260328	"Awakenings"
-6.260328	"Awesome
-6.260328	"Awesome.
-6.260328	"Aye,
-5.41523	"Aye."
-6.260328	"Babies
-6.260328	"Baby
-6.260328	"Baby,
-6.260328	"Baby."
-5.959298	"Back
-5.783207	"Bad
-6.260328	"Barclays
-6.260328	"Basingstoke!"
-6.260328	"Basingstoke,
-6.260328	"Basingstoke,"
-6.260328	"Basingstoke."
-6.260328	"Battle
-6.260328	"Battlestar
-6.260328	"Bazaaristan,"
-5.41523	"Be
-6.260328	"BeatJazzers"
-6.260328	"Beautiful
-5.056208	"Because
-6.260328	"Because,
-5.658268	"Before
-5.959298	"Being
-6.260328	"Bejeweled"
-5.959298	"Bejeweled."
-5.959298	"Believe
-5.959298	"Ben,
-5.959298	"Best
-6.260328	"Bet
-5.783207	"Better
-6.260328	"Between
-6.260328	"Beware,
-5.783207	"Biff
-5.959298	"Big
-6.260328	"Big"
-6.260328	"Bijli,
-6.260328	"Bill!
-5.959298	"Bill,
-6.260328	"Bill."
-6.260328	"Biome."
-6.260328	"Biosignatures,
-6.260328	"Black-eyed
-6.260328	"Blackawton
-6.260328	"Blah
-6.260328	"Bless
-5.959298	"Blind
-6.260328	"Blinding
-6.260328	"Blood
-6.260328	"Bloom,"
-6.260328	"Blue,
-6.260328	"Boardwalk."
-6.260328	"Bollywood."
-5.959298	"Bolt
-6.260328	"Bombing
-6.260328	"Bonanza,"
-6.260328	"Bonk"
-6.260328	"Bonsoir
-6.260328	"Book
-6.260328	"Booklist,"
-6.260328	"Boy
-5.658268	"Boy,
-5.959298	"Brain
-6.260328	"Brainbow."
-6.260328	"Brave
-6.260328	"Break
-5.783207	"Breaking
-5.959298	"Bridge
-5.959298	"Bring
-6.260328	"Britain
-6.260328	"Britain's
-6.260328	"British
-6.260328	"Bull's
-6.260328	"Burn"
-6.260328	"Business
-6.260328	"Bustin
-4.783207	"But
-6.260328	"But,"
-6.260328	"Buy
-5.959298	"By
-5.482177	"Cala
-5.959298	"Call
-6.260328	"Calm
-6.260328	"Calories!
-4.959298	"Can
-5.959298	"Can't
-5.482177	"Cancer
-6.260328	"Cancer,
-6.260328	"CandyCity."
-6.260328	"Canopy
-6.260328	"Car
-5.959298	"Careful
-6.260328	"Carmen,
-6.260328	"Cartoons
-6.260328	"Cat."
-6.260328	"Cate,
-6.260328	"Catherine
-6.260328	"Cats"
-6.260328	"Ceramics.
-6.260328	"Chaconne
-6.260328	"Change
-6.260328	"Chaos
-6.260328	"Character's
-6.260328	"Charity
-6.260328	"Charlie
-6.260328	"Charlie's
-6.260328	"Cheers"
-6.260328	"Cheese
-6.260328	"Cherry
-6.260328	"Chief
-6.260328	"China
-6.260328	"China,
-6.260328	"Choose
-6.260328	"Chop
-5.783207	"Chris,
-6.260328	"Christian
-6.260328	"Cielo
-6.260328	"Cities
-6.260328	"City
-6.260328	"Clair
-5.783207	"Clean
-6.260328	"Clean."
-6.260328	"Clear
-6.260328	"Clears"
-5.959298	"Close
-6.260328	"Closed
-6.260328	"Coase's
-6.260328	"Coca-Cola"
-6.260328	"Coffee
-6.260328	"Cogito
-6.260328	"Collapse,"
-6.260328	"Colombia."
-4.981575	"Come
-6.260328	"Come,
-6.260328	"Come."
-5.959298	"Communion,"
-6.260328	"Companies
-6.260328	"Computers
-6.260328	"Congratulations
-6.260328	"Connected"
-5.959298	"Consider
-6.260328	"Contact,"
-6.260328	"Cory's
-5.959298	"Could
-6.260328	"Country
-6.260328	"Course
-6.260328	"Courtship
-6.260328	"Cradle
-6.260328	"Crash
-6.260328	"Creation:
-5.783207	"Creative
-6.260328	"Crossing
-6.260328	"Crowns"
-6.260328	"Cuckoo's
-6.260328	"Customers."
-5.658268	"Dad,
-5.658268	"Daddy,
-6.260328	"Daily
-6.260328	"Daisy
-6.260328	"Dallas,"
-6.260328	"Damn
-5.658268	"Dan,
-6.260328	"Danzon
-5.959298	"Darling,
-6.260328	"Das
-6.260328	"Data
-6.260328	"David
-5.658268	"David,
-6.260328	"David,"
-6.260328	"Day
-5.959298	"De
-5.783207	"Dead
-6.260328	"Deadwood"
-5.561358	"Dear
-6.260328	"Dear,
-6.260328	"Death
-6.260328	"Defer
-6.260328	"Delete
-6.260328	"Delish!"
-6.260328	"Design
-6.260328	"Desperate
-6.260328	"Develop
-6.260328	"Dhani
-6.260328	"Dick,
-5.146385	"Did
-6.260328	"Didier,
-6.260328	"Die
-6.260328	"Difficult
-5.959298	"Dig
-6.260328	"Discouraging
-6.260328	"Divine."
-6.260328	"Dizzy
-6.260328	"Dizzy,
-4.658268	"Do
-6.260328	"Doctor,
-5.783207	"Does
-6.260328	"Doggystyle"
-6.260328	"Doing
-4.658268	"Don't
-6.260328	"Donde
-6.260328	"Doom,"
-6.260328	"Doris,
-5.959298	"Double
-6.260328	"Downton
-5.783207	"Dr.
-6.260328	"Dracula,"
-6.260328	"Drawn
-6.260328	"Drink
-5.783207	"Dude,
-6.260328	"Duh!
-6.260328	"Dune"
-5.959298	"Dune,"
-6.260328	"Dune."
-6.260328	"E.R."
-6.260328	"E.T.
-6.260328	"Early
-6.260328	"Earth,"
-6.260328	"Earth."
-6.260328	"Earth:"
-6.260328	"Eat
-5.41523	"Eat,
-6.260328	"Eat."
-6.260328	"Education
-6.260328	"Education:
-6.260328	"Eggbeater
-6.260328	"Eleanor,
-6.260328	"Elected
-6.260328	"ElectriCity."
-6.260328	"Electricity,
-6.260328	"Eleonora"
-5.959298	"Elizabeth,"
-5.959298	"Elizabeth."
-6.260328	"Elude
-6.260328	"Elyn,
-6.260328	"Emotional
-6.260328	"Emotions
-6.260328	"Empathy.
-5.959298	"Encyclopedia
-5.959298	"Enough
-6.260328	"Epiphany,"
-6.260328	"Eric!"
-6.260328	"Eric,
-6.260328	"Especially
-6.260328	"Eternal
-6.260328	"European
-6.260328	"Eurotrash."
-6.260328	"Evelyn,
-6.260328	"Even
-6.260328	"Events
-6.260328	"Eventually
-5.658268	"Every
-5.783207	"Everybody
-6.260328	"Everybody."
-5.959298	"Everyone
-5.783207	"Everything
-6.260328	"Everywhere
-6.260328	"Evidence
-6.260328	"Evita"
-6.260328	"Eww,
-5.561358	"Excuse
-6.260328	"Expensive
-6.260328	"Experience
-6.260328	"Extreme
-6.260328	"Eyes
-6.260328	"Eyjafjallajokull."
-6.260328	"Ezra,"
-6.260328	"FU."
-6.260328	"Fallor
-6.260328	"Family
-6.260328	"Fantastic
-6.260328	"Fantastic!
-6.260328	"Fantastic!"
-6.260328	"Fantastic.
-6.260328	"Fantasy
-6.260328	"Fargo,"
-6.260328	"Fargo."
-5.959298	"Farther
-6.260328	"Fashion
-5.959298	"Father,
-6.260328	"FeliCity."
-6.260328	"Fetch,
-5.959298	"Finally,
-5.959298	"Finding
-6.260328	"Fine,
-5.959298	"Fingertips."
-6.260328	"First
-5.959298	"First,
-6.260328	"Five."
-6.260328	"Flaubert
-5.959298	"Floating
-6.260328	"Flynn
-6.260328	"Focus
-6.260328	"Folks,
-6.260328	"Follow
-6.260328	"Food
-6.260328	"Food,
-5.260328	"For
-6.260328	"Forced
-6.260328	"Foreign
-5.658268	"Forget
-6.260328	"Form
-6.260328	"Found
-6.260328	"Fountain".
-5.783207	"Four
-6.260328	"Frank
-6.260328	"Frasier,"
-6.260328	"Free
-6.260328	"Free"
-6.260328	"Friend"
-6.260328	"Friends,"
-5.561358	"From
-6.260328	"Fuck
-6.260328	"Fun
-6.260328	"Furthermore,
-5.959298	"Fête
-6.260328	"GDP
-6.260328	"Gandhi"
-6.260328	"Gayle,
-6.260328	"Gazelle,
-6.260328	"Gee,
-6.260328	"General
-6.260328	"Gentlemen,
-6.260328	"Geo-engineering
-5.783207	"Geoff,
-6.260328	"George,
-6.260328	"Gestural"
-5.41523	"Get
-6.260328	"Getting
-6.260328	"Ghemawat's
-5.959298	"Gillian,
-5.658268	"Girl
-5.357238	"Give
-6.260328	"Given
-6.260328	"Global
-6.260328	"Gloria
-6.260328	"Glorious
-6.260328	"Gluttony
-5.181147	"Go
-5.306086	"God
-6.260328	"God"
-6.260328	"God's
-5.357238	"God,
-5.959298	"God,"
-6.260328	"Going
-6.260328	"Gold
-6.260328	"Gold.
-6.260328	"Golden
-6.260328	"Gomer
-5.357238	"Good
-6.260328	"Goodbye."
-6.260328	"Goodfellas"
-6.260328	"Goodfellas,"
-6.260328	"Google
-6.260328	"Google,"
-6.260328	"Gosh,
-6.260328	"Got
-6.260328	"Gotcha!
-6.260328	"Gotta
-6.260328	"Gouverner,
-5.959298	"Gov,
-6.260328	"Governments
-6.260328	"Grand
-5.959298	"Grandma,
-6.260328	"Grandmothers?"
-5.658268	"Great
-6.260328	"Great!
-6.260328	"Great!"
-6.260328	"Great"
-5.959298	"Great,
-6.260328	"Great.
-6.260328	"Great."
-6.260328	"Green
-5.783207	"Greg,
-6.260328	"Guess
-6.260328	"Guide
-6.260328	"Guns,
-6.260328	"Gunsmoke"
-6.260328	"Gunsmoke,"
-6.260328	"Guys,
-5.959298	"HIPPO,"
-5.959298	"Ha,
-6.260328	"Ha-ha,
-6.260328	"Hah,
-6.260328	"Hai,
-6.260328	"Half-Life,"
-5.959298	"Hamlet
-6.260328	"Handel
-6.260328	"Hang
-6.260328	"Happy
-5.959298	"Harry
-5.357238	"Have
-5.959298	"Having
-5.056208	"He
-6.260328	"He'll
-5.561358	"He's
-6.260328	"Heathrow
-6.260328	"Heh
-6.260328	"Heidi"
-6.260328	"Heinrich,
-6.260328	"Hell
-6.260328	"Hell,
-6.260328	"Hello
-6.260328	"Hello"
-5.561358	"Hello,
-6.260328	"Hello,"
-5.783207	"Hells
-6.260328	"Herbie,
-5.306086	"Here
-5.306086	"Here's
-5.658268	"Here,
-6.260328	"Here,"
-6.260328	"Heroes
-5.260328	"Hey
-4.489476	"Hey,
-6.260328	"Hey.
-6.260328	"Hi!
-5.561358	"Hi,
-6.260328	"Hi.
-6.260328	"High-tech
-6.260328	"Hire
-6.260328	"Hit
-6.260328	"Hmm,
-5.959298	"Hmm.
-6.260328	"Hmm."
-6.260328	"Hold
-6.260328	"Hollywood
-6.260328	"Home"
-6.260328	"Home,"
-6.260328	"Homework
-6.260328	"Homo
-6.260328	"Honestly,
-5.482177	"Honey,
-6.260328	"Hoo
-6.260328	"Hotel
-4.251728	"How
-5.959298	"How's
-6.260328	"Howard."
-6.260328	"Hugo"
-6.260328	"Huh!"
-5.959298	"Huh,
-6.260328	"Huh?
-6.260328	"Huhuhuhuhuhuhuhahahahaha."
-6.260328	"Human
-6.260328	"Humanity
-6.260328	"Humanity's
-6.260328	"Humans
-6.260328	"Hurray!
-6.260328	"Hurry,
-6.260328	"Hush,
-6.260328	"Hypnotize"
-6.260328	"Hypnotize,"
-3.7101	"I
-5.959298	"I"
-5.357238	"I'd
-5.084237	"I'll
-4.235022	"I'm
-4.880117	"I've
-5.959298	"I,
-5.959298	"I,"
-5.959298	"I."
-6.260328	"Ich
-5.959298	"Ideal
-6.260328	"Identity
-4.454148	"If
-6.260328	"Il
-6.260328	"Imagine,"
-6.260328	"Impossible.
-6.260328	"Impotent"
-4.880117	"In
-6.260328	"Inception."
-5.658268	"Inconvenient
-6.260328	"Indeed
-6.260328	"India
-6.260328	"Infinite
-6.260328	"Innovation
-6.260328	"Inspired
-6.260328	"Instead,
-6.260328	"Intelligent
-6.260328	"Interacting
-6.260328	"International
-6.260328	"Internet"
-6.260328	"Internet,"
-6.260328	"Internet."
-6.260328	"Inventum
-6.260328	"Inversions."
-6.260328	"Invest,
-6.260328	"Invite
-5.959298	"Iran
-6.260328	"Iran-Loves-Israel,"
-6.260328	"Iran."
-6.260328	"Iranians
-5.959298	"Iraq."
-6.260328	"Iridium
-4.81317	"Is
-5.959298	"Islam
-6.260328	"Islam"
-6.260328	"Islamic
-5.783207	"Isn't
-6.260328	"Isn’t
-6.260328	"Israel
-6.260328	"Israel"
-6.260328	"Israel,"
-5.959298	"Israelis
-4.71626	"It
-4.460988	"It's
-5.959298	"It’s
-5.959298	"I’ve
-6.260328	"JACK."
-6.260328	"Jacques
-5.959298	"James
-6.260328	"James,
-6.260328	"Jane,
-6.260328	"Japanese
-5.959298	"Jeopardy!"
-6.260328	"Jeopardy!"-playing
-5.218935	"Jeopardy"
-6.260328	"Jeopardy's"
-5.959298	"Jeopardy,"
-5.783207	"Jeopardy."
-6.260328	"Jesus,
-6.260328	"Jew"
-5.959298	"Jim,
-6.260328	"John,
-6.260328	"Johnny,
-6.260328	"Juanito,
-5.959298	"Jurassic
-5.260328	"Just
-5.959298	"K
-6.260328	"K."
-6.260328	"KINDLY
-6.260328	"Kadosh":
-6.260328	"Kapital"
-6.260328	"Keep
-6.260328	"Keep,
-6.260328	"Keeping
-6.260328	"Kew,
-6.260328	"Kiddo,
-6.260328	"Kidney
-5.959298	"Kids
-5.959298	"Kim,
-5.959298	"King
-6.260328	"King,
-6.260328	"Kneel."
-6.260328	"Knight
-6.260328	"Kniphausen
-5.561358	"Know
-6.260328	"Know,
-6.260328	"Knowing
-6.260328	"Knowledge
-6.260328	"Kung
-6.260328	"L,"
-6.260328	"L."
-6.260328	"LOL
-5.218935	"La
-6.260328	"Ladies
-6.260328	"Lady
-6.260328	"Landfill.
-6.260328	"Large
-6.260328	"Larry
-6.260328	"Las
-6.260328	"Lassie!
-6.260328	"Last
-6.260328	"Lauren,
-5.959298	"Law
-6.260328	"Le
-5.561358	"Lean
-5.783207	"Leave
-6.260328	"Lebanon?""Lebanon."
-6.260328	"Lego
-6.260328	"Leonardo,
-6.260328	"Leonardo."
-6.260328	"Les
-6.260328	"Less
-5.482177	"Let
-4.845355	"Let's
-6.260328	"Levels
-6.260328	"Liber
-6.260328	"Liespotting,"
-5.959298	"Life
-6.260328	"Light
-6.260328	"Lincoln,
-6.260328	"Linked
-6.260328	"Listen
-5.561358	"Listen,
-6.260328	"Listen.
-6.260328	"Listening
-6.260328	"Little
-6.260328	"Living
-6.260328	"Lodi
-6.260328	"Lollipop"
-6.260328	"London
-5.41523	"Look
-5.959298	"Look!
-4.616875	"Look,
-5.959298	"Looking
-6.260328	"Lord,
-6.260328	"Lost,"
-6.260328	"Lost."
-5.41523	"Love
-5.959298	"Lux
-5.959298	"M"
-6.260328	"MAD
-6.260328	"MAS*H."
-6.260328	"MY
-5.959298	"Ma'am,
-5.41523	"Ma,
-6.260328	"Macarena,"
-5.959298	"Machine
-6.260328	"Machine"
-6.260328	"Machines
-6.260328	"Madam,
-6.260328	"Madame
-6.260328	"Made
-6.260328	"Maggie
-6.260328	"Maison."
-6.260328	"Maitreya"
-5.561358	"Make
-6.260328	"Mama,
-5.783207	"Man
-5.783207	"Man,
-6.260328	"Manifesta."
-6.260328	"Marvel
-5.959298	"Mass
-6.260328	"Masters
-6.260328	"Mate,
-6.260328	"Max
-6.260328	"May
-5.260328	"Maybe
-5.783207	"Me
-6.260328	"Me.
-6.260328	"Me?
-6.260328	"Mechai,
-6.260328	"Medea
-6.260328	"Medicine
-6.260328	"Meet
-6.260328	"Meh."
-6.260328	"Meine
-6.260328	"Mermaid
-6.260328	"Messenger
-6.260328	"Middle
-6.260328	"Mindful
-6.260328	"Minister,
-5.658268	"Minority
-5.959298	"Minute
-5.783207	"Miss
-6.260328	"Mister
-6.260328	"Mixing"
-6.260328	"Mmm."
-6.260328	"Mmmmm,
-5.959298	"Modern
-6.260328	"ModiCity."
-6.260328	"Mom!
-6.260328	"Mom!"
-5.306086	"Mom,
-6.260328	"Mom.
-6.260328	"Mominqimiao,"
-5.783207	"Mommy,
-6.260328	"Moneyball,"
-6.260328	"Monstrosus,"
-6.260328	"More
-6.260328	"Moses,
-6.260328	"Mother
-6.260328	"Motherland
-6.260328	"Mr
-5.260328	"Mr.
-6.260328	"Mrs.
-6.260328	"Ms.
-6.260328	"Murder
-6.260328	"Musicophilia".
-6.260328	"Must
-4.570132	"My
-6.260328	"MySpace,"
-6.260328	"MyoD."
-6.260328	"NIMBY"
-6.260328	"Nabokov's
-6.260328	"Nada
-5.959298	"Naked
-6.260328	"Namaste,"
-6.260328	"National
-6.260328	"Nativity
-6.260328	"Nature's
-5.959298	"Nature,"
-6.260328	"Nelson
-5.658268	"Never
-6.260328	"Never,
-5.959298	"New
-6.260328	"New."
-6.260328	"New?"
-6.260328	"Next"
-5.561358	"Nice
-6.260328	"Nightwing."
-4.741814	"No
-4.397005	"No,
-5.561358	"No.
-5.029879	"No."
-5.783207	"Nobody
-6.260328	"Non-theist"
-6.260328	"None
-6.260328	"Nope.
-6.260328	"Nope."
-6.260328	"Norman
-6.260328	"Norman's
-5.959298	"North
-5.084237	"Not
-6.260328	"Nothing
-6.260328	"Nothing."
-6.260328	"Nottamun
-5.1142	"Now
-5.561358	"Now,
-6.260328	"Now,"
-6.260328	"Nurse!
-5.959298	"O
-5.056208	"OK,
-6.260328	"OK.
-6.260328	"OMG
-6.260328	"OMG,
-6.260328	"OMG,"
-6.260328	"Obey
-6.260328	"Oblivion"
-6.260328	"Oblivion,"
-6.260328	"Observations
-6.260328	"Obsessions
-6.260328	"Obviously,
-6.260328	"Ode
-5.181147	"Of
-6.260328	"Officers
-4.62686	"Oh
-6.260328	"Oh!
-4.149738	"Oh,
-5.959298	"Oh,"
-5.959298	"Oh.
-6.260328	"Oh."
-6.260328	"Oil,
-6.260328	"Okay
-4.570132	"Okay,
-6.260328	"Okay.
-5.959298	"Okay."
-6.260328	"Oklahoma,"
-5.41523	"On
-5.959298	"Once
-5.41523	"One
-6.260328	"One's
-6.260328	"One,
-6.260328	"One."
-6.260328	"Online
-5.658268	"Only
-5.658268	"Ooh,
-6.260328	"Ooh.
-6.260328	"Oooh,
-5.959298	"Oops"
-5.658268	"Oops,
-6.260328	"Opa
-6.260328	"Open
-5.41523	"Our
-6.260328	"Out
-5.959298	"Over
-6.260328	"PC."
-6.260328	"PET,"
-6.260328	"Paani"
-6.260328	"Pacifica,"
-6.260328	"Pain
-6.260328	"Pale
-6.260328	"Palestine
-6.260328	"Pammy"
-6.260328	"Paper
-6.260328	"Papi,
-6.260328	"Paradise
-6.260328	"Pardon
-6.260328	"Parenthood
-6.260328	"Pass
-6.260328	"Passacaglia"
-6.260328	"Passion
-6.260328	"Patient
-6.260328	"Paul's
-6.260328	"Paul,
-6.260328	"Peace
-6.260328	"Peace,
-6.260328	"Pearl
-6.260328	"Pedagogy
-5.306086	"People
-6.260328	"Percy!
-6.260328	"Percy"
-6.260328	"Pete,
-6.260328	"Peter
-6.260328	"Phantom
-6.260328	"Phew,
-5.959298	"Philippe,
-6.260328	"Photo
-6.260328	"Pick
-6.260328	"Picture
-6.260328	"Pieces.
-6.260328	"Pierre,
-6.260328	"Pieta,"
-6.260328	"Pimp
-6.260328	"Piss
-6.260328	"Pity?"
-6.260328	"Plan
-5.005055	"Please
-6.260328	"Please!
-5.41523	"Please,
-6.260328	"Poems
-6.260328	"Poems.
-6.260328	"Poetry
-6.260328	"Poiseuille
-5.658268	"Police
-5.783207	"Poor
-6.260328	"Pop-It,"
-6.260328	"Portal,"
-6.260328	"Portuguese
-6.260328	"Powers
-6.260328	"Practical
-6.260328	"Pre-vivor."
-6.260328	"Precepts."
-6.260328	"Predators,"
-6.260328	"Pretty
-6.260328	"Princess,
-6.260328	"Print."
-6.260328	"Pro-speras,"
-6.260328	"Probably
-5.959298	"Problems
-5.783207	"Professor
-6.260328	"Professor,
-6.260328	"Project
-5.959298	"Promise
-6.260328	"Prosperity
-6.260328	"Protest
-6.260328	"Puerto
-5.561358	"Put
-6.260328	"QC,"
-6.260328	"Que?"
-6.260328	"Queen
-5.783207	"Queerer
-6.260328	"Question
-6.260328	"R-E-S-P-E-C-T,"
-6.260328	"RMS
-6.260328	"Race
-6.260328	"Radiation
-6.260328	"Rags,
-6.260328	"Rain
-6.260328	"Rain,
-5.783207	"Rare
-6.260328	"Rasselas,
-6.260328	"Read
-6.260328	"Ready
-6.260328	"Real
-6.260328	"Really,"
-6.260328	"Really.
-5.561358	"Really?
-5.783207	"Really?"
-6.260328	"Rear
-6.260328	"Redesigning
-6.260328	"Reduce."
-6.260328	"ReefCity."
-6.260328	"Reformed
-6.260328	"Reg
-6.260328	"Reinventing
-6.260328	"Rejoice!
-6.260328	"Relax,
-6.260328	"Religion
-6.260328	"Remarkably
-5.959298	"Remember
-6.260328	"Remember,
-6.260328	"Requiem"
-6.260328	"Retreat."
-6.260328	"Return
-6.260328	"Right
-6.260328	"Right!
-5.783207	"Right,
-6.260328	"Rio."
-6.260328	"Rise
-6.260328	"Riverwalk,"
-6.260328	"Road
-6.260328	"Robot
-6.260328	"Rock
-6.260328	"Romeo
-6.260328	"Ron,
-5.783207	"Rose
-6.260328	"Rose,
-6.260328	"Rosey
-6.260328	"Rosy"
-6.260328	"Roti,
-6.260328	"Row."
-6.260328	"Rowan
-6.260328	"Ruddigore,"
-6.260328	"Rudolph
-5.959298	"Rules
-6.260328	"S'cuse
-6.260328	"Safer?
-6.260328	"Safety
-5.959298	"Sal
-6.260328	"Salvation
-5.658268	"Sam
-6.260328	"Samhita
-6.260328	"San
-6.260328	"Sandrine,
-6.260328	"Sanford
-5.658268	"Save
-6.260328	"Scared"
-6.260328	"Scared."
-6.260328	"Schindler's
-6.260328	"Scientists
-6.260328	"Scrapper"
-6.260328	"Screw
-6.260328	"Second
-6.260328	"See
-6.260328	"See,
-6.260328	"Seeds
-6.260328	"Seinfeld."
-6.260328	"Self,
-6.260328	"Self-confidence
-6.260328	"Selfish
-5.959298	"Senator,
-5.658268	"Send
-6.260328	"Separate
-6.260328	"Separated
-5.959298	"Serious
-6.260328	"Services
-5.783207	"Sesame
-6.260328	"Seve,"
-6.260328	"Sevenfold
-5.561358	"Sex
-6.260328	"Sexual
-6.260328	"Shady
-6.260328	"Shake
-6.260328	"Shalom,"
-6.260328	"Shanghai
-6.260328	"Sharing
-5.260328	"She
-6.260328	"She'll
-5.561358	"She's
-5.959298	"Shekhar,
-6.260328	"Shh
-6.260328	"Shhh!
-6.260328	"Shoot
-6.260328	"Short
-6.260328	"Shorthand
-5.658268	"Should
-6.260328	"Shush,
-6.260328	"Shush,"
-6.260328	"Shut
-5.658268	"Silent
-6.260328	"Silicon
-6.260328	"Simon
-6.260328	"Simpsons"
-6.260328	"Since
-6.260328	"Sincerity
-5.658268	"Sir,
-6.260328	"Sit
-6.260328	"Situation
-6.260328	"Six
-6.260328	"Sixty
-6.260328	"Skeletal
-6.260328	"Skin
-6.260328	"Skull
-6.260328	"Skylife"
-6.260328	"Skylife,"
-6.260328	"Slap
-6.260328	"Sleep"
-5.783207	"Sleep,"
-5.959298	"Sleep."
-6.260328	"Slip-Slidin'
-6.260328	"Small"
-5.959298	"Smarter
-6.260328	"Smothers
-6.260328	"Snow
-5.029879	"So
-5.029879	"So,
-6.260328	"So?
-5.959298	"So?"
-6.260328	"Solar
-6.260328	"Solly,
-5.41523	"Solomon,
-5.561358	"Some
-5.959298	"Somebody's
-5.959298	"Something's
-5.959298	"Sometimes
-5.783207	"Son,
-6.260328	"Sonority
-6.260328	"Sophia,
-5.959298	"Sorry,
-6.260328	"Soup
-6.260328	"Space
-6.260328	"Spaceship
-5.959298	"Spanish
-6.260328	"Speech
-6.260328	"Spelling
-6.260328	"Spend,
-6.260328	"Sperm
-6.260328	"Spider-Man"
-6.260328	"Spider-Man."
-6.260328	"Spirit
-6.260328	"Spleen"
-6.260328	"Spore."
-6.260328	"Spot
-6.260328	"Spring
-5.959298	"Sputnik"
-6.260328	"Sputnik,"
-6.260328	"Sputnik."
-6.260328	"St."
-6.260328	"Stand
-5.181147	"Star
-6.260328	"Starsky
-6.260328	"Start?"
-5.959298	"Stay
-5.959298	"Steamboat
-5.959298	"Step
-6.260328	"Stephanie"
-6.260328	"Steve"
-6.260328	"Steve,
-6.260328	"Steve,"
-6.260328	"Still
-6.260328	"Stolen
-5.482177	"Stop
-5.783207	"Stop!
-5.959298	"Stop!"
-6.260328	"Stop"
-5.959298	"Strange,"
-6.260328	"Students
-6.260328	"Stumbling
-6.260328	"Style
-6.260328	"Sub-prime
-6.260328	"Such
-6.260328	"Suggest
-6.260328	"Supersize
-6.260328	"Suppliers."
-6.260328	"Suppose
-5.783207	"Sure."
-6.260328	"Surely,
-6.260328	"Surely,"
-6.260328	"Surrendered
-6.260328	"Symphony
-6.260328	"Syria."
-6.260328	"Syria?"
-6.260328	"Syriana"
-6.260328	"System
-6.260328	"Systema
-6.260328	"T-Cell
-5.658268	"Take
-6.260328	"Tap,
-6.260328	"Ted."
-6.260328	"Teenage
-5.260328	"Tell
-6.260328	"Ten
-6.260328	"Ten."
-6.260328	"Terminal
-6.260328	"Terry,
-6.260328	"Test
-5.181147	"Thank
-6.260328	"Thanks
-6.260328	"Thanks,"
-4.981575	"That
-4.728849	"That's
-6.260328	"That’s
-3.79346	"The
-5.658268	"Then
-6.260328	"Then,
-5.029879	"There
-5.181147	"There's
-6.260328	"Therefore,
-5.181147	"These
-5.1142	"They
-5.783207	"They're
-5.959298	"Things
-4.32583	"This
-6.260328	"This,"
-5.783207	"Those
-6.260328	"Though
-6.260328	"Thoughtless
-6.260328	"Thousands
-6.260328	"Three
-5.959298	"Through
-6.260328	"Throw
-6.260328	"Till
-5.959298	"Time
-6.260328	"Timelapse,"
-6.260328	"Titanic"
-6.260328	"Titi
-6.260328	"Tits."
-5.260328	"To
-6.260328	"Tom,
-5.959298	"Tomorrow's
-6.260328	"Tomorrow,
-5.783207	"Too
-6.260328	"Tortugas
-5.959298	"Total
-6.260328	"Tower
-6.260328	"Toxic
-6.260328	"Training
-6.260328	"Trains"
-6.260328	"Trains."
-6.260328	"Transparent.
-6.260328	"Travels
-6.260328	"Trevor
-6.260328	"Triumph
-6.260328	"Tropical
-5.959298	"Trust
-6.260328	"Trust,
-6.260328	"Turn
-5.959298	"Twenty
-6.260328	"Twisted
-6.260328	"Twitter-bombing"
-5.658268	"Two
-6.260328	"U"s?
-5.783207	"U.S.
-6.260328	"Uck.
-6.260328	"Ugh,"
-6.260328	"Ugh.
-6.260328	"Uh
-6.260328	"Uh,
-6.260328	"Uh-huh
-6.260328	"Uh-uh,
-5.959298	"Um,
-6.260328	"Unless
-6.260328	"Untie
-6.260328	"Up,
-5.658268	"Upwake"
-6.260328	"Upwake,"
-5.959298	"Upwake."
-5.959298	"Use
-6.260328	"Using
-6.260328	"Usually,
-6.260328	"Utopia."
-6.260328	"Utopian"
-6.260328	"V-Day
-5.959298	"V-wave"
-5.561358	"Vagina
-6.260328	"Vague,
-5.959298	"Very
-6.260328	"Very,
-6.260328	"Victory!"
-6.260328	"Vile
-6.260328	"Volkswagon
-6.260328	"Volunteers
-5.959298	"Vote
-6.260328	"W",
-6.260328	"W".
-5.959298	"W-A-T-S-O-N"
-6.260328	"Wade
-5.306086	"Wait
-6.260328	"Wait,
-6.260328	"Wake
-6.260328	"Walking
-6.260328	"Wall
-5.658268	"War
-6.260328	"War,"
-5.959298	"Was
-5.959298	"Wasn't
-6.260328	"Wat
-5.959298	"Watch
-6.260328	"Waterman"
-6.260328	"Watermelon
-4.282605	"We
-5.482177	"We'll
-6.260328	"We'll,
-5.181147	"We're
-5.658268	"We've
-5.959298	"We,
-6.260328	"Wealth
-6.260328	"Weapon
-6.260328	"Wear
-6.260328	"Web,"
-6.260328	"Websites
-6.260328	"Wednesday"
-6.260328	"Weibo"
-5.561358	"Welcome
-4.519965	"Well
-3.858927	"Well,
-5.482177	"Well,"
-6.260328	"Well-makers
-6.260328	"Went
-6.260328	"Western
-6.260328	"Wha'?"
-4.032441	"What
-4.741814	"What's
-6.260328	"What,
-5.658268	"What?
-5.482177	"What?"
-4.79793	"When
-6.260328	"When's
-4.917905	"Where
-5.959298	"Where's
-5.482177	"Which
-6.260328	"While
-6.260328	"White
-5.218935	"Who
-5.783207	"Who's
-6.260328	"Who,
-6.260328	"Whoa
-6.260328	"Whoa!
-6.260328	"Whoa,
-5.959298	"Whoever
-5.959298	"Whom
-4.385267	"Why
-6.260328	"Why"
-6.260328	"Why,
-5.959298	"Why?
-5.41523	"Why?"
-6.260328	"Wide
-6.260328	"Wikipedia
-6.260328	"Wild
-6.260328	"Wilderness
-5.783207	"Will
-6.260328	"Window
-6.260328	"Winky
-6.260328	"Winnie,
-6.260328	"With
-5.959298	"Without
-5.783207	"Women
-6.260328	"Wonder
-5.658268	"Wonders
-6.260328	"Woo.
-5.959298	"Work
-6.260328	"Working
-5.561358	"World
-4.8986	"Would
-6.260328	"Would,
-6.260328	"Wouldn't
-6.260328	"Wow
-5.783207	"Wow!
-4.880117	"Wow,
-5.959298	"Wow.
-6.260328	"Wrongologist"
-6.260328	"Xia
-6.260328	"Yahweh
-6.260328	"Yea."
-6.260328	"Yeah!"
-4.862388	"Yeah,
-5.482177	"Yeah.
-5.783207	"Yeah."
-6.260328	"Yeah?
-6.260328	"Yentl,"
-5.783207	"Yes
-6.260328	"Yes!
-6.260328	"Yes!"
-4.62686	"Yes,
-6.260328	"Yes,"
-6.260328	"Yes.
-5.056208	"Yes."
-5.959298	"Yesterday,
-6.260328	"Yield."
-5.959298	"Yield:
-6.260328	"Yippee!"
-6.260328	"Yo'
-6.260328	"Yo,
-4.027332	"You
-6.260328	"You!
-5.783207	"You'll
-4.680544	"You're
-5.146385	"You've
-6.260328	"Young-ha
-5.41523	"Your
-6.260328	"Zany
-5.029879	"]
-6.260328	"]Governor:
-5.146385	"a
-6.260328	"a"
-6.260328	"aaaaaaaargh."
-6.260328	"abomination"
-6.260328	"acinus,"
-6.260328	"across"
-6.260328	"act
-6.260328	"active
-6.260328	"addicted"
-6.260328	"addiction"
-6.260328	"advanced
-6.260328	"advertising
-6.260328	"affection
-6.260328	"after
-5.959298	"age
-6.260328	"agitare,"
-6.260328	"agnostic"
-6.260328	"ah."
-6.260328	"al."
-6.260328	"alive!"
-5.783207	"all
-6.260328	"almighty."
-6.260328	"alot."
-6.260328	"ambigram."
-5.658268	"an
-6.260328	"anagogical"
-6.260328	"ancient
-5.306086	"and
-6.260328	"and"
-6.260328	"and,"
-6.260328	"and."
-6.260328	"anticlastic
-6.260328	"anywhere
-6.260328	"app"
-6.260328	"arc-en-ciel"
-6.260328	"architect"
-6.260328	"architecture
-6.260328	"argh."
-6.260328	"arghs"
-6.260328	"arghs,"
-5.959298	"articulate"
-6.260328	"aru
-5.959298	"as
-6.260328	"astronomical"
-6.260328	"at
-6.260328	"atheism"
-5.658268	"atheist"
-6.260328	"atheist,"
-6.260328	"atmosphere."
-6.260328	"avuncular"?
-6.260328	"aware,"
-6.260328	"away"
-6.260328	"babas,"
-6.260328	"babushkas,"
-6.260328	"baby
-6.260328	"backline"
-5.959298	"bad
-6.260328	"bad,"
-6.260328	"bad."
-6.260328	"barchan,"
-6.260328	"barefoot
-6.260328	"barrel
-6.260328	"bars,"
-6.260328	"basics?"
-6.260328	"bat"
-6.260328	"batteries
-6.260328	"battle,"
-6.260328	"beach
-6.260328	"beatjazz"
-5.959298	"because
-6.260328	"beer,"
-6.260328	"before
-6.260328	"behavior"
-6.260328	"belief"
-6.260328	"belief,"
-5.959298	"benevolent
-6.260328	"better
-5.783207	"better"
-6.260328	"better,"
-6.260328	"between
-6.260328	"bicycle"
-5.959298	"big
-6.260328	"biga"
-6.260328	"bing;"
-6.260328	"bingo"
-6.260328	"black
-6.260328	"blah"
-6.260328	"blank
-6.260328	"blood
-6.260328	"blue"
-6.260328	"blue,"
-6.260328	"bon
-5.959298	"boomerang
-6.260328	"borrowing"
-6.260328	"bossy"
-5.959298	"bossy,"
-6.260328	"bossy."
-6.260328	"break
-6.260328	"break-up"
-6.260328	"broken-up"
-6.260328	"brother"
-6.260328	"buckyballs."
-6.260328	"business"
-5.783207	"but
-6.260328	"but"
-6.260328	"buy
-6.260328	"buy"
-5.959298	"bye"
-6.260328	"bêt,"
-6.260328	"cagoots"
-6.260328	"cagoots."
-6.260328	"can
-6.260328	"can't
-5.783207	"cancer
-6.260328	"capitalist's
-6.260328	"carbon
-6.260328	"carrots,"
-6.260328	"cartoon"
-6.260328	"cast
-6.260328	"catadores"
-6.260328	"catch
-6.260328	"cats
-6.260328	"caught"
-5.482177	"cause
-6.260328	"causing
-6.260328	"cave
-6.260328	"charity
-6.260328	"charity"
-6.260328	"charter
-5.959298	"check
-6.260328	"chemo
-6.260328	"chicken,"
-6.260328	"children,"
-6.260328	"choose,
-6.260328	"ck"
-6.260328	"clay."
-6.260328	"click
-6.260328	"click"
-6.260328	"clunkers."
-6.260328	"co,"
-6.260328	"cogito
-5.959298	"cogito"
-6.260328	"cold
-6.260328	"collateral
-6.260328	"colleagues"
-6.260328	"collects"
-6.260328	"come
-6.260328	"companionate
-6.260328	"compelling
-6.260328	"competition,"
-6.260328	"complexity"
-6.260328	"compose,"
-6.260328	"compromise."
-5.959298	"computational
-6.260328	"confiscating
-6.260328	"construction
-6.260328	"consumers."
-6.260328	"contacts"
-6.260328	"content."
-6.260328	"control
-6.260328	"cops
-6.260328	"correction
-6.260328	"couchsurfing"
-6.260328	"could"
-6.260328	"couldn't
-6.260328	"coup
-6.260328	"courriel."
-6.260328	"coworking"
-6.260328	"cradle
-6.260328	"creative
-6.260328	"crony
-6.260328	"crowd-accelerated
-6.260328	"crunch
-6.260328	"cultivation
-6.260328	"cycads"
-6.260328	"dance"
-6.260328	"dark"
-5.959298	"data"?
-6.260328	"decadal"
-5.482177	"decisive
-6.260328	"decommissioned"
-6.260328	"define"
-6.260328	"degree"
-6.260328	"delicious"
-6.260328	"democratization
-5.561358	"design
-6.260328	"design"
-6.260328	"designed
-5.783207	"developing
-6.260328	"developing"
-6.260328	"did
-6.260328	"dine,"
-5.959298	"discovered"
-6.260328	"discovery"
-6.260328	"disease"
-6.260328	"dismal
-6.260328	"displacement
-6.260328	"displays"
-6.260328	"dissuade".
-6.260328	"divine
-5.959298	"do
-6.260328	"does
-6.260328	"doing
-6.260328	"doing"
-6.260328	"domestication."
-5.783207	"don't
-5.783207	"done"
-6.260328	"doo
-6.260328	"dots"
-6.260328	"down,"
-6.260328	"dragon
-6.260328	"dragon-kings."
-6.260328	"dream
-6.260328	"drill,
-5.959298	"drive
-6.260328	"dry"
-6.260328	"dualism,"
-6.260328	"duh"
-6.260328	"duping
-6.260328	"dyer,"
-6.260328	"dyer."
-6.260328	"dying
-6.260328	"e-waste"
-6.260328	"eating."
-6.260328	"economically
-6.260328	"edge
-6.260328	"elu
-6.260328	"elude
-6.260328	"email,"
-6.260328	"emotion
-6.260328	"emotions."
-6.260328	"empower,"
-6.260328	"empty"
-6.260328	"enable,"
-6.260328	"ending
-6.260328	"endurance"
-6.260328	"engagement,"
-6.260328	"entrepreneur,"
-6.260328	"equals,"
-6.260328	"eureka!"
-6.260328	"eureka"
-6.260328	"evangelist,
-6.260328	"ever-smiling
-6.260328	"everybody
-6.260328	"everyday
-6.260328	"evil"
-6.260328	"evolution
-6.260328	"exhausted
-6.260328	"expanding
-6.260328	"expo
-6.260328	"external
-6.260328	"extract"
-6.260328	"family"
-6.260328	"fear,"
-6.260328	"fearsome
-6.260328	"feather-shaped"
-6.260328	"feel"
-6.260328	"feminine"
-6.260328	"feminism"
-5.959298	"feminist,"
-5.959298	"fever
-6.260328	"fighter."
-6.260328	"fighting,"
-5.783207	"figure"
-6.260328	"figure."
-6.260328	"finger
-6.260328	"first
-6.260328	"fix,"
-6.260328	"fixing
-6.260328	"flat
-6.260328	"flipping"
-6.260328	"floating
-6.260328	"flupsy"
-6.260328	"fold."
-5.783207	"for
-5.959298	"for."
-6.260328	"force"
-6.260328	"forced
-6.260328	"forces
-5.959298	"forged
-6.260328	"forger,"
-6.260328	"forward
-6.260328	"fossil
-6.260328	"found
-5.783207	"free"
-6.260328	"free."
-6.260328	"freedom."
-6.260328	"friended."
-6.260328	"friends"
-6.260328	"from
-6.260328	"from"
-6.260328	"full
-6.260328	"fun
-6.260328	"fun"
-6.260328	"future,"
-6.260328	"gaaaa"
-6.260328	"gadget"
-6.260328	"gaga"
-6.260328	"gal
-6.260328	"game
-6.260328	"garden
-6.260328	"gardens
-6.260328	"gather"
-6.260328	"generous
-6.260328	"geo-medicine."
-6.260328	"geoengineering"
-5.658268	"get
-6.260328	"getting
-6.260328	"girl"
-5.959298	"give
-6.260328	"giving
-6.260328	"global
-5.561358	"go
-6.260328	"go"
-6.260328	"godsend"
-6.260328	"going
-6.260328	"gold
-5.959298	"good
-6.260328	"good"
-5.783207	"good,"
-6.260328	"goosh"
-6.260328	"grand
-6.260328	"gratefulness"
-6.260328	"gratitude"
-6.260328	"grave."
-6.260328	"gravely
-6.260328	"greed."
-6.260328	"green
-6.260328	"ground."
-6.260328	"groundswell
-6.260328	"growing
-6.260328	"guanidine"
-6.260328	"guilt"
-6.260328	"guilty,"
-6.260328	"ha
-6.260328	"hadith
-5.959298	"hand,"
-6.260328	"happiness
-6.260328	"happiness,"
-6.260328	"happy
-6.260328	"happy,
-6.260328	"have
-6.260328	"haves"
-6.260328	"he
-6.260328	"heat
-6.260328	"heaven,"
-6.260328	"helicopter
-6.260328	"helios"
-6.260328	"helix."
-6.260328	"hello"
-6.260328	"here
-6.260328	"hero
-5.783207	"high
-6.260328	"highlighter
-6.260328	"hijacking
-6.260328	"hilarious."
-6.260328	"hmm,"
-6.260328	"hobo"
-6.260328	"hollow,"
-6.260328	"holy"
-6.260328	"hometown
-6.260328	"hotspots"
-6.260328	"house,"
-6.260328	"how"
-6.260328	"http:"
-6.260328	"hubris"
-6.260328	"human
-6.260328	"humanist"?
-6.260328	"humility"
-6.260328	"humor
-6.260328	"husband
-6.260328	"hyperbolic
-6.260328	"i
-6.260328	"iPod
-5.959298	"idea
-6.260328	"idealization,
-5.959298	"ideas
-6.260328	"idiot
-5.959298	"if
-6.260328	"igwe"
-6.260328	"igwe":
-6.260328	"illness,"
-6.260328	"imbalance"
-6.260328	"immortal."
-6.260328	"impenetrability,"
-6.260328	"impossible
-6.260328	"impotence"
-5.561358	"in
-6.260328	"indelible,"
-5.959298	"infectious
-5.959298	"information
-6.260328	"inhuman
-6.260328	"institutional
-6.260328	"intentional
-6.260328	"interdependence"
-6.260328	"intersectionality."
-6.260328	"into"
-6.260328	"intolerable
-6.260328	"intra-active."
-6.260328	"invading
-5.783207	"invisible
-6.260328	"iron."
-5.357238	"is
-5.783207	"it
-6.260328	"it’s
-6.260328	"jellyfish."
-6.260328	"jian
-6.260328	"job,"
-6.260328	"junk
-5.783207	"just
-6.260328	"kambar,"
-6.260328	"karuna,"
-5.959298	"killer
-6.260328	"killing
-6.260328	"kindness"
-6.260328	"knee-deep
-6.260328	"know
-6.260328	"knowledge
-5.959298	"la
-6.260328	"laid
-6.260328	"large
-6.260328	"last
-6.260328	"learn
-6.260328	"learny"
-6.260328	"leaven."
-6.260328	"leded:leded."
-6.260328	"ledger
-6.260328	"left
-6.260328	"leftovers,"
-6.260328	"lenses."
-6.260328	"let's
-6.260328	"level
-6.260328	"liberating
-6.260328	"lifesaving."
-6.260328	"lifestyle
-5.959298	"light
-6.260328	"like
-6.260328	"like"
-6.260328	"limitation,"
-6.260328	"liquid
-6.260328	"listen"
-6.260328	"literate
-6.260328	"little
-6.260328	"local"
-6.260328	"location-aware
-6.260328	"locavore,"
-6.260328	"long-term
-5.959298	"lost
-6.260328	"love
-6.260328	"love."
-5.959298	"lovely
-6.260328	"lunatic
-6.260328	"lung
-6.260328	"mARBLECAKE.
-6.260328	"madd"
-6.260328	"maker,"
-6.260328	"makes
-6.260328	"making
-5.959298	"man
-6.260328	"man-hater
-6.260328	"managed
-6.260328	"mantis
-6.260328	"manufacturers"
-6.260328	"many
-6.260328	"maps."
-6.260328	"marble
-6.260328	"mass
-6.260328	"massive-passive"
-6.260328	"mathemagician."
-6.260328	"mathemagics."
-6.260328	"maverick."
-6.260328	"maybe"
-5.783207	"me"
-6.260328	"me."
-6.260328	"meen"
-6.260328	"meet
-6.260328	"memes"
-6.260328	"memes,"
-5.959298	"memes."
-6.260328	"mensch."
-6.260328	"mentalese."
-6.260328	"mentalizing
-6.260328	"mercenary."
-6.260328	"messiah
-6.260328	"metro
-6.260328	"mey
-6.260328	"microblog".
-6.260328	"microfinance,"
-6.260328	"middle
-6.260328	"mimeme,"
-6.260328	"mimi"
-6.260328	"mind
-6.260328	"mind-boggling"
-6.260328	"mine's
-6.260328	"mirror."
-6.260328	"mise
-6.260328	"mistake"
-6.260328	"mixing"
-6.260328	"model
-6.260328	"monism,"
-6.260328	"monotasking."
-6.260328	"monsteret"
-6.260328	"moral
-5.959298	"more
-6.260328	"most
-6.260328	"mother
-6.260328	"moudjahid"
-6.260328	"mountaintop
-6.260328	"mouse."
-6.260328	"multiverse."
-6.260328	"music
-6.260328	"music,"
-5.959298	"my
-6.260328	"my"
-6.260328	"naively"
-6.260328	"narrative
-6.260328	"naturalist"
-5.959298	"naturalist,"
-6.260328	"nature
-6.260328	"nauseous,"
-6.260328	"neko,
-6.260328	"neuro-enhancements"
-6.260328	"neurogenesis-neutral"
-6.260328	"new
-6.260328	"new,"
-6.260328	"news
-5.561358	"no
-5.959298	"no"
-6.260328	"no,"
-6.260328	"no."
-6.260328	"non-Indian,"
-6.260328	"non-lethal"
-6.260328	"non-theist,"
-6.260328	"non-theist."
-6.260328	"non-zero
-6.260328	"non-zero-sumness"
-6.260328	"normal"
-6.260328	"normal,"
-6.260328	"normal."
-5.783207	"not
-6.260328	"nothing
-6.260328	"now
-6.260328	"now"?
-6.260328	"nuclear
-6.260328	"nuclear"
-6.260328	"nuclear,"
-6.260328	"obesageneric."
-6.260328	"obesity
-6.260328	"oceans"
-6.260328	"odds
-6.260328	"of
-5.959298	"off"
-6.260328	"oh,"
-6.260328	"oil
-6.260328	"okay";
-6.260328	"old,"
-6.260328	"omics"
-6.260328	"on"
-6.260328	"once
-6.260328	"oncogene,"
-6.260328	"one
-5.959298	"one"
-6.260328	"only
-6.260328	"ooh"
-5.561358	"oops"
-6.260328	"or
-6.260328	"or."
-6.260328	"orange
-6.260328	"other"
-6.260328	"other."
-6.260328	"otherness"
-6.260328	"otherness."
-5.959298	"our
-5.783207	"our"
-6.260328	"over
-5.959298	"oyster-tecture."
-6.260328	"pack."
-6.260328	"packaging,"
-6.260328	"panettone,"
-6.260328	"panning"
-6.260328	"paper
-6.260328	"paradox
-6.260328	"parking
-6.260328	"pass"
-6.260328	"passive
-6.260328	"patient
-6.260328	"patient."
-6.260328	"patriarchy."
-6.260328	"pay,"
-6.260328	"people's
-6.260328	"people,
-6.260328	"people,"
-6.260328	"people."
-6.260328	"perennial
-6.260328	"perfectly
-6.260328	"perils
-6.260328	"personal
-6.260328	"perspective,"
-6.260328	"persuasive
-6.260328	"photos
-6.260328	"pig-lig,"
-6.260328	"pinch
-6.260328	"pinfish,"
-6.260328	"pity"
-6.260328	"pizzled":
-6.260328	"planetary
-6.260328	"planning"
-6.260328	"plastics,"
-6.260328	"play"
-6.260328	"playing."
-6.260328	"plumbing."
-6.260328	"poison."
-6.260328	"pooky,"
-6.260328	"possibilist."
-6.260328	"potentially
-6.260328	"power
-6.260328	"practical
-6.260328	"practically
-6.260328	"pretty,"
-6.260328	"prize
-6.260328	"profiteering."
-6.260328	"proofing."
-6.260328	"protocells,"
-6.260328	"public"
-5.959298	"pure
-6.260328	"purine
-6.260328	"push
-6.260328	"pussy-cat."
-6.260328	"put"
-6.260328	"qiu
-6.260328	"quasars."
-6.260328	"queerer
-6.260328	"radical
-6.260328	"radio,"
-6.260328	"raw
-6.260328	"raw"?
-6.260328	"re-commissioned,"
-6.260328	"real
-6.260328	"really"
-6.260328	"really"s.
-5.959298	"reciprocal
-6.260328	"recreated
-6.260328	"redistributing
-6.260328	"reigned
-6.260328	"relish"
-6.260328	"remarkably
-6.260328	"ren,"
-6.260328	"rendering."
-6.260328	"renegade
-6.260328	"resource
-6.260328	"responsible."
-6.260328	"restriction."
-5.959298	"retarded
-6.260328	"retrofuturism,"
-6.260328	"return
-5.959298	"reverse
-6.260328	"revolution."
-6.260328	"right
-6.260328	"right,"
-6.260328	"ripe
-6.260328	"robota."
-6.260328	"rounding."
-6.260328	"rules."
-6.260328	"rural
-6.260328	"saints
-5.959298	"salvation"
-6.260328	"satchidananda."
-6.260328	"satisfactory,"
-6.260328	"schizophonia."
-6.260328	"schizophrenics."
-6.260328	"schmende"
-6.260328	"screen
-5.959298	"security
-6.260328	"seeing
-6.260328	"sell
-6.260328	"semantic
-6.260328	"send,"
-6.260328	"senior
-6.260328	"serie,"
-6.260328	"series"
-6.260328	"seriese,"
-6.260328	"seriesen,"
-6.260328	"serieses,"
-6.260328	"serii?"
-6.260328	"serum,"
-6.260328	"sexual
-5.959298	"sh"
-6.260328	"sh."
-6.260328	"shake."
-6.260328	"shape-retaining
-6.260328	"sheep"
-6.260328	"sheep-like"
-6.260328	"shhhhhhh,"
-6.260328	"shhhhhhhhhhhhh,"
-6.260328	"shoop."
-6.260328	"should"
-6.260328	"showbiz
-6.260328	"sick"
-6.260328	"silhouette"
-6.260328	"silly,
-6.260328	"since
-6.260328	"sister"?
-6.260328	"sitos"
-6.260328	"skill"
-6.260328	"sky"
-6.260328	"slippery
-6.260328	"slipping,"
-6.260328	"smart
-6.260328	"smarter."
-5.959298	"smashed"
-6.260328	"so
-6.260328	"so"
-6.260328	"so,
-5.959298	"social
-5.959298	"soft"
-5.959298	"software
-6.260328	"sol
-6.260328	"solidity"
-6.260328	"solo
-6.260328	"some
-5.959298	"something"
-6.260328	"sometimes
-5.959298	"sorry,
-6.260328	"sorry’s"?
-6.260328	"sound."
-6.260328	"soup,"
-6.260328	"soupe
-6.260328	"space,"
-6.260328	"special
-6.260328	"species,"
-6.260328	"spent
-6.260328	"speras,"
-6.260328	"spiritual
-6.260328	"split
-6.260328	"spot
-6.260328	"standing
-5.959298	"stewardship
-6.260328	"sticks,"
-6.260328	"stop
-6.260328	"store,"
-6.260328	"strangeness,"
-6.260328	"strategy"
-6.260328	"stuff."
-6.260328	"subject-verb-recipient-thing."
-6.260328	"subject-verb-thing-to-a-recipient"
-6.260328	"submission
-6.260328	"submission."
-6.260328	"substitution."
-6.260328	"super
-6.260328	"supergrid"
-6.260328	"supernaturalist"
-6.260328	"supersymmetry"
-6.260328	"supplies,"
-6.260328	"surgeons
-6.260328	"surrender
-6.260328	"surrender,"
-6.260328	"suspended
-6.260328	"sweet
-6.260328	"symmetrical
-5.959298	"sympathetic
-5.783207	"sí
-5.959298	"take
-6.260328	"takes
-6.260328	"talk"
-6.260328	"tasawwuf"
-6.260328	"taught
-6.260328	"teacher
-6.260328	"teaches
-6.260328	"teamwork"
-6.260328	"teapot
-6.260328	"techno-trances."
-6.260328	"television,"
-5.783207	"tell."
-6.260328	"tering,"
-6.260328	"terraculture"
-6.260328	"terraculture,"
-6.260328	"testimony"
-6.260328	"th"
-5.959298	"thank
-5.561358	"that
-6.260328	"that's
-4.544325	"the
-6.260328	"theatrical
-6.260328	"them,"
-5.959298	"then
-6.260328	"theory
-5.959298	"there's
-6.260328	"thermal
-6.260328	"they"
-6.260328	"think
-5.959298	"thinking
-6.260328	"thinspiration."
-5.959298	"third
-5.959298	"this
-6.260328	"thrived"
-6.260328	"throve"
-6.260328	"thunderwear."
-6.260328	"time
-6.260328	"time,"
-6.260328	"times"
-5.146385	"to
-6.260328	"to"
-6.260328	"today,"
-6.260328	"together,"
-6.260328	"told
-6.260328	"told."
-6.260328	"tomorrow,"
-5.658268	"tooth
-5.959298	"top
-6.260328	"topos"
-6.260328	"totalitarian."
-6.260328	"touching"
-6.260328	"tourist"
-6.260328	"transition
-6.260328	"tri-lingual"
-6.260328	"triality."
-6.260328	"triple
-6.260328	"trips
-6.260328	"tropical."
-6.260328	"truing"
-6.260328	"truly
-6.260328	"trust
-6.260328	"truth"
-6.260328	"tulip,"
-6.260328	"twat."
-6.260328	"tweeeeeet."
-6.260328	"two
-6.260328	"ubuntu"
-6.260328	"ubuntu."
-5.959298	"uh
-6.260328	"uhh,
-6.260328	"uhh,"
-6.260328	"uncle"
-5.959298	"undo"
-6.260328	"unfair
-6.260328	"union,
-5.561358	"universal
-6.260328	"universe"
-6.260328	"unless
-6.260328	"unpack"
-6.260328	"unparalleled
-6.260328	"unpublished
-5.959298	"until
-6.260328	"up
-6.260328	"upside-down."
-6.260328	"upsuck"
-6.260328	"urban
-6.260328	"use
-6.260328	"used"
-6.260328	"user-generated
-6.260328	"using
-5.959298	"vagina
-6.260328	"vagina"
-6.260328	"veil
-6.260328	"village
-6.260328	"violation."
-6.260328	"virtual
-6.260328	"visualize
-6.260328	"walk,"
-6.260328	"walking
-6.260328	"want"
-6.260328	"want,"
-6.260328	"want."
-6.260328	"wanted."
-6.260328	"wants,"
-6.260328	"warm"
-6.260328	"was
-6.260328	"wasichu"
-6.260328	"wasichu,"
-6.260328	"water"
-5.959298	"water."
-5.357238	"we
-6.260328	"we"
-6.260328	"we've
-6.260328	"we,"
-6.260328	"we."
-6.260328	"weird
-6.260328	"wellness,"
-5.959298	"what
-6.260328	"what"
-5.959298	"what's
-6.260328	"what,"
-6.260328	"when
-6.260328	"where
-6.260328	"where:"
-6.260328	"whereas
-6.260328	"white
-6.260328	"who"
-5.783207	"why
-5.658268	"why"
-6.260328	"why,"
-6.260328	"why?"
-6.260328	"will
-6.260328	"wired
-6.260328	"wish".
-6.260328	"with"
-6.260328	"with,"
-6.260328	"witness"
-6.260328	"wizards"
-6.260328	"wo-ot,
-6.260328	"woman,"
-6.260328	"women"
-6.260328	"woop,
-6.260328	"word
-6.260328	"workarounds"
-6.260328	"worth
-6.260328	"would"
-6.260328	"wow!"
-6.260328	"wow"
-6.260328	"wow";
-6.260328	"wrong"
-6.260328	"x
-5.658268	"yes"
-6.260328	"yes,"
-6.260328	"yo,
-5.41523	"you
-5.959298	"you"
-6.260328	"you're
-6.260328	"you."
-6.260328	"young
-6.260328	"zanna:"
-6.260328	"ālep,"
-6.260328	#
-5.783207	#1:
-6.260328	#2.
-5.482177	#2:
-5.783207	#3:
-6.260328	#CBDQ.
-6.260328	#justsaying.
-5.783207	$1
-5.658268	$1,000
-6.260328	$1,000.
-6.260328	$1,000?
-5.959298	$1.10.
-6.260328	$1.18,
-6.260328	$1.20.
-6.260328	$1.25
-6.260328	$1.50
-6.260328	$1.57
-5.482177	$10
-5.658268	$10,000
-6.260328	$10,000.
-5.181147	$100
-6.260328	$100,
-5.959298	$100,000
-6.260328	$100,000.
-6.260328	$112,000
-6.260328	$13,000
-6.260328	$135
-6.260328	$140
-6.260328	$15
-5.959298	$150
-5.959298	$150,000
-5.959298	$2,000
-6.260328	$2.10,
-6.260328	$2.40,
-6.260328	$2.5
-5.959298	$2.70?"
-5.561358	$20
-6.260328	$20,000
-5.783207	$200
-5.959298	$200,000.
-6.260328	$250
-5.959298	$3
-6.260328	$3,000
-6.260328	$30
-6.260328	$30,000
-5.959298	$300
-6.260328	$316,000
-6.260328	$350
-5.658268	$4
-5.959298	$4,000
-5.959298	$4.5
-5.959298	$40
-6.260328	$40,000."
-6.260328	$400
-6.260328	$400,000
-6.260328	$404
-6.260328	$460
-5.658268	$5
-6.260328	$5.25,
-5.41523	$50
-5.959298	$50,000
-6.260328	$50,000,
-6.260328	$500,000
-6.260328	$51,000
-6.260328	$650
-5.959298	$700
-6.260328	$80
-6.260328	$99."
-6.260328	$Billion
-4.938109	&amp;
-5.41523	&lt;em&gt;&lt;/em&gt;
-6.260328	&lt;em&gt;Letting
-6.260328	&lt;em&gt;Liespotting,&lt;/em&gt;
-6.260328	&lt;em&gt;The
-6.260328	'01
-6.260328	'05
-6.260328	'05,
-6.260328	'06,
-6.260328	'08,
-6.260328	'15,
-5.959298	'20s
-5.959298	'20s,
-5.561358	'30s
-5.783207	'30s,
-5.959298	'30s.
-5.959298	'40s
-5.482177	'40s,
-6.260328	'47,
-6.260328	'47.
-5.357238	'50s
-5.41523	'50s,
-5.783207	'50s.
-5.959298	'51,
-6.260328	'51.
-6.260328	'52,
-5.959298	'53.
-6.260328	'56.
-6.260328	'57
-6.260328	'58
-6.260328	'58.
-5.005055	'60s
-5.146385	'60s,
-5.561358	'60s.
-6.260328	'65.
-6.260328	'66
-5.260328	'70s
-5.029879	'70s,
-5.306086	'70s.
-6.260328	'72.
-6.260328	'74.
-6.260328	'75
-6.260328	'76
-6.260328	'77
-5.084237	'80s
-5.181147	'80s,
-5.482177	'80s.
-6.260328	'80s:
-6.260328	'82
-5.959298	'82,
-5.959298	'83,
-6.260328	'83.
-6.260328	'84
-6.260328	'85
-6.260328	'85,
-6.260328	'86
-5.783207	'86,
-6.260328	'86.
-6.260328	'87
-6.260328	'87,
-6.260328	'88
-6.260328	'88,
-6.260328	'89,
-6.260328	'90,
-5.218935	'90s
-5.181147	'90s,
-5.41523	'90s.
-6.260328	'91
-6.260328	'92
-6.260328	'92,
-6.260328	'93,
-6.260328	'93.
-6.260328	'94
-5.959298	'94,
-6.260328	'94.
-5.783207	'95
-6.260328	'95,
-5.959298	'96
-5.482177	'96,
-6.260328	'96.
-5.959298	'97
-6.260328	'97-'98.
-6.260328	'98
-5.959298	'98,
-6.260328	'99
-6.260328	'99,
-5.959298	'Are
-6.260328	'B.'
-6.260328	'Basingstoke.'"
-6.260328	'Blackawton
-6.260328	'Bribe'
-6.260328	'Brokeback
-6.260328	'But
-6.260328	'By
-6.260328	'Can
-5.959298	'Cause
-6.260328	'Chad'
-6.260328	'Click
-6.260328	'Come
-6.260328	'Earth.'"
-5.959298	'Eat,
-6.260328	'Electricity.'
-6.260328	'Elyn,
-6.260328	'Error
-6.260328	'Faster,
-6.260328	'Film
-6.260328	'Gimme
-6.260328	'Go
-6.260328	'God
-6.260328	'Gone
-6.260328	'Good
-6.260328	'Gravity
-6.260328	'Ha,
-6.260328	'He
-6.260328	'Head
-6.260328	'Hey
-6.260328	'Hey,
-6.260328	'Hi,'
-6.260328	'High?
-5.561358	'I
-5.959298	'I'
-5.959298	'I'm
-6.260328	'I've
-6.260328	'If
-5.783207	'Is
-6.260328	'Israel.'"
-6.260328	'Jeopardy'
-6.260328	'Jeopardy.'
-6.260328	'Lie
-6.260328	'Look
-6.260328	'Look,
-6.260328	'Memos
-5.959298	'No,
-6.260328	'Oh
-5.959298	'Oh,
-6.260328	'Okay.
-6.260328	'One
-6.260328	'Perdon,
-5.959298	'Pod
-5.959298	'R'
-6.260328	'Technology,
-6.260328	'Tell
-6.260328	'Thank
-6.260328	'That's
-5.959298	'The
-6.260328	'They
-5.959298	'This
-6.260328	'Thou
-6.260328	'We've
-5.658268	'What
-5.959298	'When
-5.959298	'Where
-6.260328	'White
-6.260328	'Why
-6.260328	'Yeah.
-6.260328	'Yes'
-5.959298	'You
-6.260328	'You're
-6.260328	'a,'
-5.959298	'agnostic'
-6.260328	'and.'
-5.959298	'atheist'
-6.260328	'biomarker,'
-6.260328	'can't'
-5.260328	'cause
-6.260328	'chop
-6.260328	'chute
-6.260328	'deaf'
-6.260328	'each
-5.482177	'em
-6.260328	'em!"
-5.783207	'em,
-5.783207	'em.
-6.260328	'faster,'
-5.959298	'fight
-6.260328	'his,'
-6.260328	'holy.'
-6.260328	'hood,
-6.260328	'i'
-6.260328	'i'.
-6.260328	'n
-5.959298	'n'
-5.783207	'n.
-6.260328	'nads
-6.260328	'official'
-6.260328	'people.'"
-6.260328	'ports,
-6.260328	'privacy'
-6.260328	'rahmah,'
-6.260328	'reverse
-6.260328	'roo
-5.959298	'round
-6.260328	'sacred'
-6.260328	'stans
-6.260328	'stans.
-6.260328	'the
-6.260328	'them.'
-6.260328	'there's
-5.658268	'til
-6.260328	'tis
-6.260328	'universe,'
-6.260328	'we'
-6.260328	'writhing
-6.260328	'writing
-6.260328	'x'
-6.260328	("The
-6.260328	("What
-6.260328	("Yes,
-6.260328	("leaving
-6.260328	(And
-5.959298	(Applause
-5.561358	(Audience:
-5.482177	(Audio:
-6.260328	(BUT
-6.260328	(Chieko
-6.260328	(Contains
-6.260328	(Do
-5.357238	(Filmed
-6.260328	(Groans,
-6.260328	(Hint:
-5.561358	(In
-6.260328	(Laughter
-5.959298	(Mac
-5.959298	(Multiple
-6.260328	(Music
-5.482177	(Music:
-6.260328	(Narrator:
-6.260328	(Okay,
-6.260328	(Rainforest
-5.959298	(Space
-5.959298	(This
-6.260328	(Typewriter
-5.561358	(Typing
-6.260328	(Video:
-5.357238	(and
-6.260328	(as
-6.260328	(especially
-6.260328	(in
-6.260328	(rats
-6.260328	(verified
-6.260328	(with
-6.260328	)
-5.357238	+
-6.260328	+,"
-5.056208	,
-6.260328	,"
-6.260328	,to
-5.181147	-
-2.228475	--
-5.959298	--"
-5.959298	---
-6.260328	-0.5
-6.260328	-10
-6.260328	-100,
-6.260328	-20
-6.260328	-70,
-6.260328	-80,
-6.260328	-certified
-4.845355	.
-3.749783	...
-4.959298	..."
-6.260328	...?
-6.260328	...a
-6.260328	.00001
-6.260328	.000042
-6.260328	.0001
-6.260328	.001
-6.260328	.01
-6.260328	.01.
-6.260328	.03
-5.561358	.05
-6.260328	.128
-6.260328	.16
-6.260328	.17
-5.959298	.22
-6.260328	.26
-6.260328	.3
-5.959298	.5
-6.260328	.6%
-5.959298	.7
-6.260328	.75
-6.260328	.S.
-5.482177	/
-5.959298	/b/
-5.959298	/b/.
-6.260328	0
-6.260328	0.01
-6.260328	0.03
-5.357238	0.1
-5.658268	0.2
-5.959298	0.2,
-5.959298	0.3
-6.260328	0.3.
-5.959298	0.4
-6.260328	0.5
-6.260328	0.5.
-6.260328	0.6
-5.959298	0.7
-6.260328	0.8
-6.260328	0.8.
-6.260328	0.8?
-6.260328	0001,
-6.260328	0111.
-5.959298	0400
-6.260328	079044.
-4.81317	1
-5.41523	1,
-6.260328	1,"
-4.373837	1,000
-5.959298	1,000,
-5.959298	1,000-year-old
-5.783207	1,000.
-6.260328	1,000th
-6.260328	1,001
-6.260328	1,034,
-5.959298	1,034?
-6.260328	1,040
-6.260328	1,098
-5.357238	1,100
-5.959298	1,100,
-6.260328	1,114
-5.146385	1,200
-6.260328	1,250
-5.41523	1,300
-6.260328	1,300,
-5.959298	1,400
-6.260328	1,452
-5.146385	1,500
-6.260328	1,500-person
-6.260328	1,500.
-5.561358	1,600
-6.260328	1,680
-6.260328	1,700
-6.260328	1,700-acre
-6.260328	1,759
-5.658268	1,800
-6.260328	1,800,000
-6.260328	1,900
-6.260328	1,945
-6.260328	1,982
-5.482177	1.
-6.260328	1.0
-6.260328	1.0,
-5.41523	1.1
-6.260328	1.15
-5.029879	1.2
-6.260328	1.2.
-5.658268	1.25
-5.181147	1.3
-5.959298	1.3.
-5.959298	1.33.
-5.306086	1.4
-6.260328	1.48.
-5.146385	1.5
-6.260328	1.5,
-6.260328	1.5."
-5.658268	1.6
-6.260328	1.618,
-6.260328	1.625.
-6.260328	1.65
-5.658268	1.7
-6.260328	1.75-million-square-feet
-5.260328	1.8
-5.959298	1.9
-6.260328	1/10,000th
-6.260328	1/16
-6.260328	1/2
-6.260328	1/4
-6.260328	1/400th
-6.260328	1/6th
-6.260328	1/8
-3.463754	10
-6.260328	10"
-6.260328	10%
-4.552758	10,
-4.368234	10,000
-5.561358	10,000,
-6.260328	10,000-year-old
-5.783207	10,000.
-6.260328	10,000:
-6.260328	10-,
-6.260328	10-billion-year
-5.959298	10-cent
-5.658268	10-digit
-6.260328	10-dollar
-5.658268	10-foot
-6.260328	10-kilometer
-5.959298	10-kiloton
-5.959298	10-meter
-6.260328	10-minute
-5.783207	10-percent
-6.260328	10-second
-6.260328	10-story
-6.260328	10-to-the-18th-power
-5.658268	10-year
-5.218935	10-year-old
-6.260328	10-year-old,
-4.959298	10.
-5.783207	10."
-6.260328	10.3
-3.77037	100
-5.959298	100%
-5.306086	100,
-4.527934	100,000
-6.260328	100,000,
-6.260328	100,000-base
-6.260328	100,000-dollar
-6.260328	100,000-pound,
-5.482177	100,000.
-6.260328	100,000?
-6.260328	100-dollar
-6.260328	100-metric-ton
-6.260328	100-mile
-6.260328	100-percent-sanitary-napkin-using
-6.260328	100-plus
-5.959298	100-pound
-5.959298	100-year
-5.959298	100-year-old
-5.561358	100.
-5.959298	1000
-6.260328	1000,
-6.260328	1000awesomethings.com.
-6.260328	100MPH.
-6.260328	100th
-5.658268	101
-5.783207	101,
-6.260328	101.
-6.260328	102,
-5.959298	103
-5.959298	103,041.
-6.260328	104
-6.260328	104.
-5.658268	105
-6.260328	105,000,
-5.783207	106
-6.260328	107th.
-6.260328	108
-5.959298	109
-5.658268	10:
-6.260328	10:30
-6.260328	10;
-5.959298	10?
-5.561358	10th
-6.260328	10th,
-6.260328	10th-century
-6.260328	10th:
-4.362701	11
-5.056208	11,
-5.783207	11,000
-6.260328	11,900
-5.959298	11-centimeter
-5.561358	11-year-old
-5.959298	11-year-old,
-6.260328	11-year-olds
-5.218935	11.
-6.260328	11.'"
-6.260328	11.2
-6.260328	11.3,
-5.260328	110
-6.260328	110,
-6.260328	110,000
-6.260328	111
-5.959298	112
-5.959298	114
-6.260328	115
-5.959298	115,000
-6.260328	115-year-old
-6.260328	118
-6.260328	118,236.
-6.260328	11:
-6.260328	11:00
-6.260328	11?"
-5.561358	11th
-5.561358	11th,
-4.120449	12
-4.938109	12,
-4.981575	12,000
-6.260328	12,000.
-5.959298	12,500
-6.260328	12-,
-6.260328	12-gauge
-5.959298	12-page
-6.260328	12-point
-6.260328	12-volt
-5.482177	12-year-old
-5.959298	12-year-olds
-6.260328	12-year-olds.
-5.260328	12.
-6.260328	12.5
-4.768966	120
-5.959298	120,
-5.561358	120,000
-6.260328	120-foot
-6.260328	120-odd
-6.260328	120-volt
-6.260328	120-year-old,
-6.260328	1200-pound
-6.260328	120th
-6.260328	121
-5.959298	122
-6.260328	123,000
-6.260328	124
-6.260328	124th.
-5.146385	125
-6.260328	125th
-6.260328	128
-6.260328	128.
-6.260328	1280
-5.959298	129
-6.260328	1298
-6.260328	12:
-6.260328	12:10
-6.260328	12?
-5.482177	12th
-6.260328	12th,
-4.536052	13
-5.181147	13,
-6.260328	13,"
-5.783207	13,000
-6.260328	13-month-old,
-6.260328	13-year
-5.959298	13-year-old
-5.306086	13.
-6.260328	13."
-6.260328	13.72
-6.260328	13.8
-5.084237	130
-6.260328	130,000
-5.959298	130-fold
-6.260328	130-foot
-6.260328	130-year-old
-6.260328	130.
-6.260328	1300
-6.260328	1300s,
-6.260328	132
-6.260328	133
-5.959298	134
-5.959298	135
-6.260328	135,
-6.260328	135,000
-6.260328	1368.
-5.959298	1369.
-5.783207	137
-6.260328	138
-6.260328	139
-6.260328	1390.
-6.260328	13:
-6.260328	13:19,
-6.260328	13?
-5.482177	13th
-5.959298	13th,
-6.260328	13th-century
-4.385267	14
-5.181147	14,
-5.561358	14,000
-6.260328	14,064
-6.260328	14-and-a-half
-6.260328	14-centimeter
-6.260328	14-gauge
-6.260328	14-hour-long
-5.959298	14-year
-6.260328	14-year-old,
-6.260328	14-year-olds
-6.260328	14-year-olds,
-6.260328	14-year-olds.
-5.658268	14.
-6.260328	14.2
-6.260328	14.7
-6.260328	14.9
-5.056208	140
-6.260328	140,
-6.260328	140,000
-6.260328	1400
-5.959298	1400s.
-6.260328	141st
-6.260328	142-foot
-6.260328	143
-6.260328	144
-5.959298	144,000
-6.260328	144.
-6.260328	145
-6.260328	1450
-6.260328	146.
-6.260328	147
-5.658268	148
-6.260328	148,
-6.260328	1491,
-5.959298	1492.
-6.260328	1494,
-6.260328	14:
-6.260328	14;
-5.959298	14th
-6.260328	14th,
-6.260328	14th-century
-3.817848	15
-6.260328	15%
-5.029879	15,
-5.260328	15,000
-6.260328	15,000,
-6.260328	15-dollar
-6.260328	15-foot
-6.260328	15-hour
-6.260328	15-kilometer
-6.260328	15-liter
-6.260328	15-minute
-6.260328	15-month-old
-6.260328	15-month-older,
-6.260328	15-percent
-5.959298	15-year
-5.306086	15-year-old
-6.260328	15-year-old.
-5.783207	15-year-olds
-6.260328	15-year-olds,
-5.181147	15.
-6.260328	15."
-6.260328	15/16ths
-4.51214	150
-6.260328	150,
-4.981575	150,000
-6.260328	150-pound
-5.783207	1500
-5.959298	1500,
-5.959298	1500.
-6.260328	1500:
-5.959298	1500s
-6.260328	1500s.
-5.959298	151
-6.260328	1520
-6.260328	1543
-5.783207	156
-6.260328	1560
-6.260328	1574
-6.260328	158
-6.260328	1584
-6.260328	1584.
-6.260328	15:
-6.260328	15?
-5.357238	15th
-5.959298	15th,
-4.427819	16
-5.084237	16,
-5.357238	16,000
-6.260328	16,500
-6.260328	16-bit
-5.959298	16-millimeter
-6.260328	16-minute
-6.260328	16-story
-5.783207	16-year-old
-5.561358	16.
-6.260328	16."
-5.306086	160
-5.783207	160,000
-6.260328	160-acre
-6.260328	1600
-5.959298	1600s
-6.260328	1600s,
-6.260328	1609,
-6.260328	160:
-5.959298	162
-6.260328	162.
-6.260328	1621.
-6.260328	1623,
-6.260328	163
-6.260328	165
-6.260328	165.
-6.260328	1650
-6.260328	1656,
-6.260328	168
-6.260328	16:
-6.260328	16;
-6.260328	16K
-6.260328	16K,
-6.260328	16K.
-6.260328	16mm
-5.561358	16th
-4.561358	17
-5.306086	17,
-5.482177	17,000
-6.260328	17,000.
-6.260328	17-18
-6.260328	17-hour
-6.260328	17-year
-6.260328	17-year-old.
-5.959298	17.
-5.482177	170
-6.260328	170.
-6.260328	1700
-6.260328	1700,
-6.260328	1700s,
-6.260328	171
-6.260328	171,
-5.959298	172
-6.260328	1731,
-5.959298	174
-6.260328	174,
-6.260328	174,000
-6.260328	1740s,
-5.41523	175
-6.260328	1750.
-6.260328	1759
-6.260328	1759.
-6.260328	176
-6.260328	1776
-6.260328	178
-6.260328	1780s.
-6.260328	1787,
-6.260328	17:
-4.981575	17th
-5.658268	17th,
-6.260328	17th-century
-6.260328	17th.
-6.260328	17th:
-4.251728	18
-5.218935	18,
-5.783207	18,000
-6.260328	18-and-a-half
-6.260328	18-hour
-6.260328	18-inch
-6.260328	18-minute
-5.783207	18-month
-6.260328	18-wheelers
-6.260328	18-wheelers.
-5.658268	18-year-old
-6.260328	18-year-old,
-5.658268	18.
-5.357238	180
-6.260328	180,000
-6.260328	180,000.
-6.260328	180.
-6.260328	1800
-5.561358	1800,
-6.260328	1800.
-6.260328	1800:
-5.561358	1800s
-5.658268	1800s,
-6.260328	1800s.
-6.260328	1801,
-6.260328	1802,
-6.260328	1803,
-6.260328	181
-6.260328	1812,
-6.260328	1812.
-6.260328	1813.
-6.260328	1813."
-6.260328	182,000
-6.260328	1820.
-6.260328	1824,
-5.959298	1824.
-5.959298	183
-6.260328	183.
-6.260328	1830
-6.260328	1835,
-6.260328	1835.
-6.260328	1837.
-6.260328	184
-6.260328	1840,
-6.260328	1840.
-6.260328	1840s
-6.260328	1842.
-6.260328	1844.
-6.260328	1847,
-6.260328	1848,
-6.260328	1849
-5.959298	1849,
-5.959298	185
-6.260328	185,000
-5.959298	1850
-6.260328	1850's,
-6.260328	1850,
-6.260328	1850s
-6.260328	1851
-6.260328	1851:
-6.260328	1852,
-6.260328	1856.
-6.260328	1858,
-6.260328	1859,
-6.260328	186
-6.260328	186,540
-6.260328	1860,
-6.260328	1863,
-6.260328	1863:
-5.959298	1865,
-6.260328	1866:
-6.260328	1867,
-6.260328	1868
-6.260328	1868:
-6.260328	1869:
-6.260328	1870
-6.260328	1870s,
-5.959298	1871,
-6.260328	1871:
-6.260328	1872
-6.260328	1872,
-6.260328	1874:
-5.959298	1875
-6.260328	1875:
-6.260328	1876,
-6.260328	1876:
-6.260328	1877
-6.260328	1877,
-6.260328	1877."
-6.260328	1877:
-6.260328	1879.
-6.260328	1879?
-6.260328	1880,
-6.260328	1880s,
-6.260328	1882
-6.260328	1883
-5.959298	1885
-5.783207	1885,
-6.260328	1887.
-6.260328	1887:
-6.260328	1888,
-6.260328	1889
-6.260328	189
-5.783207	1890
-5.959298	1890,
-5.959298	1890.
-6.260328	1890s
-6.260328	1890s,
-6.260328	1890s;
-6.260328	1891
-6.260328	1891,
-6.260328	1897.
-6.260328	1898,
-6.260328	18:
-5.084237	18th
-5.658268	18th-century
-4.845355	19
-5.181147	19,
-6.260328	19,000
-6.260328	19-month
-5.41523	19-year-old
-6.260328	19-year-old.
-6.260328	19-year-olds
-5.482177	19.
-5.783207	190
-6.260328	190,000
-6.260328	190.
-5.357238	1900
-5.260328	1900,
-5.482177	1900.
-5.959298	1900:
-5.959298	1900s
-5.658268	1900s,
-5.783207	1900s.
-6.260328	1900s:
-5.959298	1901,
-5.959298	1902,
-6.260328	1903
-6.260328	1903,
-6.260328	1904
-6.260328	1904,
-6.260328	1904.
-5.959298	1905
-6.260328	1907.
-5.783207	1908
-5.658268	1908,
-5.783207	1908.
-5.959298	1910
-5.959298	1910,
-6.260328	1911.
-5.959298	1912,
-6.260328	1912.
-5.959298	1913
-6.260328	1913,
-6.260328	1914
-6.260328	1914,
-6.260328	1915
-6.260328	1915,
-6.260328	1916
-6.260328	1916.
-6.260328	1917,
-6.260328	1917.
-5.658268	1918
-5.783207	1918,
-5.783207	1919
-6.260328	1919,
-5.959298	192
-6.260328	192.
-5.783207	1920s
-5.959298	1920s,
-6.260328	1920s;
-6.260328	1921
-6.260328	1921,
-6.260328	1922,
-6.260328	1924.
-6.260328	1925,
-6.260328	1926
-6.260328	1926,
-6.260328	1927
-6.260328	1927,
-6.260328	1928
-5.658268	1928,
-6.260328	1928.
-5.959298	1929
-5.482177	1929,
-6.260328	1929.
-6.260328	1930
-5.959298	1930,
-5.41523	1930s
-5.357238	1930s,
-5.482177	1930s.
-6.260328	1931,
-6.260328	1931.
-5.959298	1932
-5.959298	1932,
-5.783207	1932.
-6.260328	1933
-5.959298	1933,
-6.260328	1934,
-6.260328	1937
-6.260328	1937.
-5.959298	1938,
-5.959298	1938.
-6.260328	1939,
-5.959298	194
-6.260328	1940
-5.959298	1940,
-6.260328	1940.
-6.260328	1940:
-5.959298	1940s
-5.959298	1940s,
-5.959298	1940s.
-5.959298	1941
-6.260328	1941,
-6.260328	1941.
-6.260328	1942,
-6.260328	1942.
-6.260328	1943
-6.260328	1943.
-6.260328	1944,
-6.260328	1945
-5.482177	1945,
-5.561358	1945.
-6.260328	1946,
-6.260328	1946.
-5.959298	1947
-6.260328	1947,
-6.260328	1947.
-5.658268	1948
-6.260328	1948,
-5.783207	1949
-5.783207	1949,
-6.260328	1949.
-6.260328	195,000
-5.218935	1950
-5.260328	1950,
-5.482177	1950.
-5.482177	1950s
-5.181147	1950s,
-5.482177	1950s.
-6.260328	1950s:
-6.260328	1951,
-6.260328	1952
-5.959298	1953
-5.959298	1953,
-5.783207	1953.
-5.658268	1954,
-6.260328	1955
-6.260328	1956.
-5.783207	1957
-5.561358	1957,
-6.260328	1957.
-5.658268	1958,
-6.260328	1958.
-6.260328	1958."
-6.260328	1959
-6.260328	1959,
-6.260328	1959.
-6.260328	1959/1960
-5.084237	1960
-6.260328	1960's,
-5.260328	1960,
-5.357238	1960.
-6.260328	1960."
-6.260328	1960:
-5.482177	1960s
-5.41523	1960s,
-5.357238	1960s.
-6.260328	1961,
-5.959298	1961.
-5.959298	1962
-5.658268	1962,
-5.959298	1962.
-6.260328	1962?
-6.260328	1963
-5.959298	1963,
-6.260328	1963.
-5.783207	1964
-5.561358	1964,
-6.260328	1964.
-6.260328	1964:
-5.959298	1965
-5.561358	1965,
-5.959298	1965.
-5.783207	1966
-5.658268	1966,
-5.959298	1966.
-5.658268	1967,
-5.959298	1967.
-5.260328	1968,
-5.561358	1968.
-5.959298	1969
-5.959298	1969,
-5.561358	1970
-6.260328	1970's.
-5.41523	1970,
-5.783207	1970.
-6.260328	197042.
-6.260328	1970?
-5.306086	1970s
-5.084237	1970s,
-5.181147	1970s.
-6.260328	1970s;
-6.260328	1970s?
-6.260328	1971
-6.260328	1971,
-6.260328	1971.
-5.783207	1973
-5.357238	1973,
-5.959298	1973.
-5.658268	1974
-5.41523	1974,
-5.959298	1974.
-5.482177	1975
-5.561358	1975,
-5.561358	1975.
-5.959298	1976
-5.561358	1976,
-5.783207	1976.
-5.959298	1977
-5.658268	1977,
-6.260328	1977.
-6.260328	1977?
-5.783207	1978
-5.959298	1978,
-5.959298	1978.
-5.783207	1979
-5.658268	1979,
-5.959298	1979.
-6.260328	1979?
-6.260328	198
-5.561358	1980
-5.783207	1980's,
-6.260328	1980's.
-5.306086	1980,
-5.482177	1980.
-6.260328	1980:
-5.357238	1980s
-5.029879	1980s,
-5.561358	1980s.
-6.260328	1980s?
-6.260328	1981
-6.260328	1981,
-5.959298	1981.
-5.959298	1982
-5.561358	1982,
-6.260328	1982-'83
-6.260328	1982-'83,
-5.783207	1982.
-6.260328	1983,
-5.658268	1983.
-5.306086	1984
-5.260328	1984,
-5.783207	1984.
-6.260328	1984:
-5.658268	1985
-5.561358	1985,
-6.260328	1985.
-5.959298	1986
-5.41523	1986,
-5.561358	1986.
-5.959298	1987
-5.561358	1987,
-6.260328	1987.
-5.959298	1988
-5.561358	1988,
-6.260328	1988.
-5.561358	1989
-5.260328	1989,
-5.783207	1989.
-6.260328	199
-5.357238	1990
-5.056208	1990,
-5.783207	1990.
-5.181147	1990s
-5.146385	1990s,
-5.218935	1990s.
-5.561358	1991
-5.357238	1991,
-5.783207	1991.
-6.260328	1992
-5.783207	1992,
-5.959298	1992.
-5.783207	1993
-5.561358	1993,
-6.260328	1993.
-5.783207	1994
-5.218935	1994,
-5.658268	1994.
-5.959298	1995
-5.181147	1995,
-5.959298	1995.
-5.783207	1996
-5.357238	1996,
-5.959298	1996:
-5.658268	1997
-5.084237	1997,
-6.260328	1997.
-6.260328	1997;
-6.260328	1997?
-5.41523	1998
-5.146385	1998,
-5.561358	1998.
-6.260328	1998:
-5.41523	1999
-5.482177	1999,
-5.561358	1999.
-6.260328	1999:
-6.260328	1999?
-4.561358	19th
-5.783207	19th-century
-6.260328	19th.
-5.181147	1:
-5.959298	1K
-5.783207	1st
-6.260328	1st."
-4.71626	2
-6.260328	2'
-5.357238	2,
-4.579087	2,000
-6.260328	2,000,
-6.260328	2,000-base
-6.260328	2,051
-6.260328	2,052.
-6.260328	2,077,000
-6.260328	2,100
-6.260328	2,200
-6.260328	2,200,000
-6.260328	2,226
-5.959298	2,300
-5.959298	2,400
-5.260328	2,500
-6.260328	2,500,
-6.260328	2,600
-5.783207	2,700
-5.959298	2,800
-6.260328	2,928
-5.357238	2.
-6.260328	2."
-5.218935	2.0
-5.959298	2.0,
-6.260328	2.0.
-6.260328	2.0."
-6.260328	2.0?"
-5.959298	2.1
-6.260328	2.13
-5.783207	2.2
-5.41523	2.3
-6.260328	2.3,
-5.959298	2.4
-5.306086	2.5
-6.260328	2.5,
-6.260328	2.5.
-5.959298	2.6
-6.260328	2.6-fold,
-5.959298	2.8
-5.959298	2.9
-3.592875	20
-6.260328	20"?
-6.260328	20+
-4.783207	20,
-6.260328	20,"
-4.658268	20,000
-6.260328	20,000,
-5.783207	20,000.
-6.260328	20-20-20
-6.260328	20-day
-6.260328	20-dollar
-6.260328	20-fold,
-6.260328	20-kiloton
-6.260328	20-million-dollar
-5.959298	20-minute
-6.260328	20-odd
-6.260328	20-percent
-6.260328	20-second
-5.959298	20-some
-6.260328	20-something
-6.260328	20-yard
-5.783207	20-year
-5.783207	20-year-old
-6.260328	20-year-olds,
-6.260328	20-years-old,
-5.357238	20.
-4.136477	200
-6.260328	200,
-4.981575	200,000
-6.260328	200,000,
-6.260328	200,000-dollar
-6.260328	200-300
-5.959298	200-foot
-6.260328	200-nanometer-sized
-6.260328	200-year-old
-6.260328	200.
-4.8986	2000
-4.768966	2000,
-5.1142	2000.
-5.783207	2000s
-5.783207	2000s,
-5.260328	2001
-5.181147	2001,
-6.260328	2001-2002,
-5.783207	2001.
-6.260328	2001:
-6.260328	2001;
-5.306086	2002
-5.181147	2002,
-5.306086	2002.
-5.181147	2003
-4.959298	2003,
-5.561358	2003.
-6.260328	2003:
-6.260328	2003;
-5.561358	2004
-4.862388	2004,
-5.146385	2004.
-6.260328	2004."
-4.981575	2005
-4.880117	2005,
-5.41523	2005.
-6.260328	2005:
-6.260328	2005;
-5.306086	2006
-5.029879	2006,
-5.41523	2006.
-5.959298	2006:
-5.005055	2007
-4.845355	2007,
-6.260328	2007-2008
-5.146385	2007.
-6.260328	2007:
-4.79793	2008
-4.728849	2008,
-5.1142	2008.
-6.260328	2008;
-5.260328	2009
-4.680544	2009,
-5.181147	2009.
-6.260328	200th
-6.260328	201
-5.146385	2010
-4.71626	2010,
-5.029879	2010.
-5.959298	2010:
-6.260328	2010s,
-5.482177	2011
-4.917905	2011,
-5.357238	2011.
-6.260328	2011?
-5.561358	2012
-5.260328	2012,
-5.959298	2012.
-5.959298	2013
-5.482177	2013,
-6.260328	2013.
-5.561358	2014
-5.561358	2014,
-5.959298	2014.
-6.260328	2015
-5.260328	2015,
-5.357238	2015.
-5.959298	2016
-6.260328	2016,
-6.260328	2016.
-6.260328	2018.
-5.658268	2020
-5.658268	2020,
-6.260328	2020-circa
-5.005055	2020.
-5.783207	2020s,
-6.260328	2020s.
-6.260328	2022,
-6.260328	2022.
-6.260328	2025
-5.783207	2025,
-6.260328	2025.
-5.959298	2027.
-6.260328	2029,
-5.783207	2030
-5.181147	2030,
-5.260328	2030.
-5.959298	204
-6.260328	2040,
-5.959298	2040.
-6.260328	2048
-6.260328	205,849.
-6.260328	205,849?
-5.357238	2050
-4.959298	2050,
-5.181147	2050.
-6.260328	2050?"
-6.260328	2054
-6.260328	2054,
-6.260328	2060
-6.260328	2065.
-6.260328	2075,
-6.260328	209
-6.260328	20:
-6.260328	20?
-6.260328	20mph]
-5.482177	20s
-5.658268	20s,
-5.783207	20s.
-6.260328	20s."
-4.397005	20th
-6.260328	20th,
-5.783207	20th-century
-4.755178	21
-5.482177	21,
-5.959298	21,000
-6.260328	21,000.
-6.260328	21-year-old
-5.561358	21.
-6.260328	21.37
-6.260328	210,000
-5.783207	2100
-5.658268	2100,
-6.260328	2100.
-6.260328	2106.
-6.260328	211k!
-6.260328	211k.
-6.260328	213,000
-6.260328	2150?
-6.260328	216
-6.260328	217
-6.260328	219
-6.260328	2191,"
-4.489476	21st
-6.260328	21st,
-5.482177	21st-century
-4.845355	22
-5.482177	22,
-6.260328	22,000
-5.959298	22-mile
-6.260328	22-year-old
-5.561358	22.
-6.260328	220
-6.260328	220,000
-6.260328	220-lb
-6.260328	221
-6.260328	222.
-6.260328	223,000
-6.260328	226.
-6.260328	227
-6.260328	228
-6.260328	22nd
-4.741814	23
-5.959298	23,
-5.783207	23,000
-6.260328	23,000.
-5.482177	23.
-5.783207	230
-6.260328	232
-6.260328	232,000
-6.260328	233
-6.260328	236
-6.260328	23andMe
-5.959298	23rd
-6.260328	23rd,
-6.260328	23rd.
-4.434253	24
-5.658268	24,
-5.561358	24,000
-6.260328	24,900-percent
-5.357238	24-hour
-6.260328	24-hours-a-day
-6.260328	24-story
-5.959298	24-year-old
-5.959298	24.
-6.260328	24.95
-5.482177	24/7
-5.658268	24/7,
-5.783207	24/7.
-5.41523	240
-5.959298	244
-5.959298	246
-6.260328	247
-6.260328	248
-6.260328	249
-5.959298	249,
-6.260328	24th,
-4.084237	25
-6.260328	25%
-5.181147	25,
-4.828964	25,000
-6.260328	25,000-year-old
-6.260328	25-dollar
-6.260328	25-foot
-6.260328	25-page
-6.260328	25-percent
-6.260328	25-year
-6.260328	25-year-old
-5.561358	25.
-6.260328	25.3
-4.755178	250
-4.981575	250,000
-6.260328	250,000,
-6.260328	250.
-6.260328	251,000
-6.260328	254
-6.260328	256
-6.260328	256-lead
-6.260328	256.
-6.260328	259
-6.260328	25th
-6.260328	25th,
-4.959298	26
-5.959298	26,
-5.959298	26,000
-6.260328	26,244.
-6.260328	26,500
-6.260328	26-mile
-6.260328	26-year-old
-6.260328	26.
-6.260328	260
-6.260328	263972.
-6.260328	265
-6.260328	266,
-5.959298	26th
-6.260328	26th,
-4.741814	27
-6.260328	27,
-6.260328	27-kilometer
-6.260328	27-page
-5.783207	27-year-old
-5.959298	27.
-5.783207	270
-5.959298	270,000
-5.959298	275
-6.260328	276
-6.260328	27th."
-5.1142	28
-5.783207	28,
-6.260328	28,000
-6.260328	28-page
-5.959298	28-year-old
-5.959298	28.
-6.260328	28.4
-5.658268	280
-6.260328	280,000
-6.260328	285,
-6.260328	285,000
-5.959298	28th
-5.181147	29
-5.783207	29,
-5.959298	29,000
-6.260328	29-cent
-6.260328	295
-5.959298	29th,
-6.260328	29th?"
-4.938109	2:
-6.260328	2:15
-6.260328	2:18
-6.260328	2D
-5.783207	2D,
-6.260328	2D.
-5.959298	2nd
-6.260328	2nd,
-6.260328	2s.
-4.880117	3
-5.959298	3,
-4.579087	3,000
-5.959298	3,000,
-6.260328	3,000-mile
-5.959298	3,000-square-foot
-6.260328	3,100
-6.260328	3,200
-6.260328	3,249,
-6.260328	3,300
-6.260328	3,339
-6.260328	3,400
-6.260328	3,400,
-5.959298	3,500
-5.959298	3,600
-6.260328	3,700.
-5.41523	3-D
-6.260328	3-digit
-5.783207	3-minute
-5.658268	3.
-6.260328	3."
-6.260328	3.0"
-6.260328	3.0,
-6.260328	3.0,"
-5.959298	3.1
-5.482177	3.2
-6.260328	3.26
-5.218935	3.3
-6.260328	3.3,
-5.783207	3.4
-6.260328	3.4,
-5.306086	3.5
-6.260328	3.6
-6.260328	3.7
-5.959298	3.8
-6.260328	3.9,
-6.260328	3/4ths
-3.736582	30
-6.260328	30%
-5.029879	30,
-4.81317	30,000
-6.260328	30,000-foot
-6.260328	30,000-year
-6.260328	30,000.
-5.959298	30-centimeter
-5.959298	30-day
-6.260328	30-dollar
-5.959298	30-foot
-6.260328	30-millimeter
-5.658268	30-minute
-6.260328	30-mosque
-6.260328	30-second
-6.260328	30-some
-6.260328	30-square-mile
-5.561358	30-year
-6.260328	30-year-olds
-6.260328	30-years-old
-5.561358	30.
-4.32583	300
-5.306086	300,000
-6.260328	300,000,
-6.260328	300,000.
-6.260328	300-pound
-6.260328	300-pound,
-6.260328	300-series
-6.260328	300-tree
-6.260328	300.
-6.260328	3000
-6.260328	300;
-5.959298	30?
-5.783207	30s
-5.658268	30s,
-5.959298	30s.
-5.658268	30th
-5.005055	31
-5.959298	31,
-6.260328	31,459
-6.260328	31.
-5.959298	311
-6.260328	315
-6.260328	317
-5.959298	31st
-4.8986	32
-5.959298	32,
-5.959298	32,000
-6.260328	32,000.
-6.260328	32-year-old
-5.658268	32.
-5.959298	320
-6.260328	320,000
-6.260328	321
-6.260328	321.
-6.260328	3220
-5.959298	324
-5.658268	325
-6.260328	327
-6.260328	328,489.
-5.005055	33
-6.260328	33,
-6.260328	33,000
-6.260328	33.
-5.959298	33."
-5.959298	330
-5.959298	330,000
-6.260328	331
-6.260328	331,
-5.959298	333
-6.260328	334
-6.260328	334,
-6.260328	335
-5.357238	34
-5.783207	34,
-6.260328	345,000
-5.959298	3481.
-4.536052	35
-5.482177	35,
-5.357238	35,000
-6.260328	35-kilometer
-6.260328	35-watt
-6.260328	35-year-old
-6.260328	35.
-6.260328	35/36
-4.938109	350
-5.658268	350,000
-6.260328	350,000-dollar
-6.260328	350-pound
-5.959298	350.
-6.260328	35S
-5.181147	36
-6.260328	36,
-5.959298	36,000
-6.260328	36-hour
-6.260328	36-year-old
-5.959298	36.
-5.306086	360
-6.260328	360,000
-6.260328	360-degree
-6.260328	360s
-5.561358	365
-4.959298	37
-5.783207	37.
-6.260328	370,000
-6.260328	375
-5.306086	38
-6.260328	38,
-5.658268	38,000
-5.959298	38,760
-6.260328	38,931.
-6.260328	38,931;
-6.260328	38.
-5.959298	380
-6.260328	384,000
-6.260328	385
-6.260328	3876,
-6.260328	38th
-5.561358	39
-6.260328	39-year-old
-5.783207	390
-6.260328	391
-5.306086	3:
-6.260328	3:14
-6.260328	3:19.
-6.260328	3:33
-6.260328	3:59:59,
-5.959298	3?
-4.616875	3D
-5.482177	3D,
-6.260328	3D-printed
-5.482177	3D.
-6.260328	3DZ
-6.260328	3G
-6.260328	3M
-5.959298	3M.
-6.260328	3rd
-5.056208	4
-5.658268	4,
-4.741814	4,000
-5.783207	4,000,
-5.959298	4,000-pound
-6.260328	4,000-ton
-5.959298	4,000.
-6.260328	4,000th
-5.658268	4,500
-6.260328	4,700th
-6.260328	4,999
-5.959298	4.
-5.959298	4.0,
-6.260328	4.0:
-5.959298	4.2
-6.260328	4.3
-6.260328	4.4
-5.959298	4.5
-6.260328	4.6
-3.968072	40
-6.260328	40%
-5.357238	40,
-4.981575	40,000
-6.260328	40,000,
-5.959298	40,000-mile
-6.260328	40,000-year
-5.959298	40,000.
-5.959298	40-
-6.260328	40-minute
-6.260328	40-pound
-6.260328	40-some
-6.260328	40-some-odd
-5.959298	40-year-old
-5.561358	40.
-6.260328	40."
-4.440784	400
-5.084237	400,000
-6.260328	400,000.
-6.260328	400-foot-tall
-6.260328	400-odd
-6.260328	400-pound
-6.260328	400-ton-capacity
-6.260328	400.
-6.260328	4000
-6.260328	4000-year-old
-6.260328	400?
-5.260328	401
-5.146385	404
-6.260328	404.
-6.260328	404:
-6.260328	405
-6.260328	407
-6.260328	40?
-5.783207	40s
-6.260328	40s,
-5.658268	40s.
-6.260328	41
-6.260328	41,
-6.260328	410,000
-6.260328	410,000.
-6.260328	413
-6.260328	414
-6.260328	417
-5.146385	42
-5.783207	42,000
-6.260328	42-pound
-6.260328	42-story
-6.260328	425
-5.783207	42nd
-5.1142	43
-6.260328	43-or-so
-6.260328	43-year-old
-6.260328	430
-6.260328	433,000
-6.260328	436
-5.357238	44
-5.959298	44,
-5.658268	44,000
-5.959298	44.
-6.260328	448
-6.260328	44875
-6.260328	44875.
-4.536052	45
-6.260328	45,
-5.783207	45,000
-6.260328	45,000,
-6.260328	45,000-pound
-5.783207	45-degree
-5.959298	45-minute
-6.260328	45-pound
-5.783207	45-story
-6.260328	45-year-old
-6.260328	45.
-5.260328	450
-6.260328	450,
-6.260328	450?
-6.260328	457
-6.260328	457.
-5.084237	46
-6.260328	46,136.
-6.260328	46-year-old
-6.260328	466,
-6.260328	466,489,
-5.482177	47
-6.260328	47,
-6.260328	47-year-old
-6.260328	47.
-6.260328	470
-6.260328	473,000
-6.260328	474
-6.260328	476
-6.260328	47th
-4.880117	48
-6.260328	48,
-6.260328	48-year-old
-6.260328	48.
-6.260328	480,000
-6.260328	48?
-5.561358	49
-6.260328	492
-5.482177	4:
-6.260328	4:00
-6.260328	4:04
-6.260328	4:12
-5.959298	4:15.
-6.260328	4:30,
-5.783207	4D
-6.260328	4D.
-6.260328	4am,
-5.959298	4chan
-6.260328	4chan,
-6.260328	4chan.
-6.260328	4chan?
-6.260328	4mm
-6.260328	4th
-6.260328	4th?
-4.938109	5
-5.783207	5,
-4.454148	5,000
-6.260328	5,000-base
-6.260328	5,000-letter
-5.959298	5,000-year-old
-5.783207	5,000.
-5.959298	5,300
-6.260328	5,300.
-6.260328	5,400,
-6.260328	5,445
-6.260328	5-sense
-5.658268	5.
-6.260328	5.1
-6.260328	5.4
-5.561358	5.5
-6.260328	5.5-day
-6.260328	5.7
-6.260328	5.8.
-3.737884	50
-5.1142	50,
-4.71626	50,000
-6.260328	50,000,
-6.260328	50,000-square-feet,
-6.260328	50,000-square-foot
-5.783207	50,000.
-6.260328	50-100
-6.260328	50-20
-6.260328	50-50,
-6.260328	50-50.
-6.260328	50-60
-6.260328	50-base
-6.260328	50-centimeter
-6.260328	50-dollar
-6.260328	50-gallon
-6.260328	50-lb.
-5.959298	50-percent
-6.260328	50-plus
-5.306086	50.
-6.260328	50."
-6.260328	50/50.
-4.226904	500
-5.959298	500,
-5.306086	500,000
-6.260328	500,000-base
-6.260328	500-page
-5.959298	500.
-6.260328	500s
-6.260328	500th
-6.260328	501
-6.260328	501?
-6.260328	503
-6.260328	50:1
-6.260328	50K,
-6.260328	50s
-5.783207	50s,
-6.260328	50s.
-5.658268	50th
-5.959298	51
-6.260328	512.
-6.260328	513,284?
-5.1142	52
-5.959298	52,
-6.260328	52,000
-5.959298	529
-5.959298	529.
-5.561358	53
-6.260328	5300
-6.260328	536.
-6.260328	539
-5.306086	54
-6.260328	540
-6.260328	547
-5.029879	55
-6.260328	55,
-5.959298	55,000
-6.260328	55,000.
-5.658268	550
-6.260328	550,000
-6.260328	553
-6.260328	554
-6.260328	555.
-6.260328	55th
-5.41523	56
-6.260328	56.
-5.357238	57
-5.959298	57,000
-6.260328	57,683
-5.959298	571,230,000
-6.260328	57;
-5.306086	58
-5.959298	581
-6.260328	581.
-5.658268	59
-6.260328	59,300
-6.260328	59-year-old
-5.959298	59.
-6.260328	594.
-5.561358	5:
-6.260328	5:10.
-6.260328	5:45
-6.260328	5:58.
-6.260328	5C.
-6.260328	5th
-5.218935	6
-5.959298	6,
-4.959298	6,000
-5.959298	6,000,
-6.260328	6,000-cycle-strong
-6.260328	6,000-kilometer-long
-6.260328	6,000-odd
-5.959298	6,000."
-6.260328	6.
-6.260328	6.3
-6.260328	6.4,
-5.658268	6.5
-5.783207	6.8
-6.260328	6.8.
-6.260328	6.9
-4.146385	60
-6.260328	60's
-5.260328	60,
-4.862388	60,000
-5.959298	60-hour
-6.260328	60-mile-long
-6.260328	60-minute
-6.260328	60-page
-6.260328	60-times-larger
-5.783207	60-year-old
-6.260328	60.
-4.692126	600
-5.959298	600,
-5.658268	600,000
-6.260328	600,000,
-6.260328	607,
-6.260328	609
-6.260328	60K.
-6.260328	60s
-5.959298	60s,
-6.260328	60s.
-6.260328	60th
-6.260328	61
-5.783207	62
-5.959298	620
-5.482177	63
-5.959298	63%
-6.260328	63-percent
-6.260328	630
-5.306086	64
-6.260328	64,
-6.260328	64-,
-6.260328	64-year-old
-6.260328	64.
-6.260328	648
-4.862388	65
-5.658268	65,
-5.482177	65,000
-5.783207	65-year-old
-6.260328	65-year-olds
-6.260328	65.
-5.783207	650
-6.260328	66
-5.783207	66,000
-6.260328	66.
-6.260328	662
-6.260328	666,
-6.260328	66th,
-5.783207	67
-6.260328	67,000
-6.260328	67,298
-6.260328	67-year-old
-5.561358	68
-6.260328	68,000
-6.260328	68,000-dollar
-5.783207	683
-6.260328	683.
-6.260328	69
-5.959298	6:
-6.260328	6:20.
-5.959298	6:30
-6.260328	6:30,
-5.959298	6?
-6.260328	6th,
-5.357238	7
-5.260328	7,000
-6.260328	7,100
-6.260328	7,291
-6.260328	7,305
-5.783207	7,500
-5.959298	7,599
-6.260328	7-hour
-6.260328	7-year-old
-5.959298	7.
-5.959298	7.5
-6.260328	7.5,
-6.260328	7.6
-6.260328	7.68245837
-5.783207	7.7
-6.260328	7.9
-6.260328	7/7
-4.278057	70
-5.561358	70,
-5.357238	70,000
-6.260328	70-page
-5.959298	70-year-old
-5.959298	70.
-4.755178	700
-6.260328	700,
-5.482177	700,000
-6.260328	700,000.
-6.260328	707.
-5.482177	70s
-6.260328	70s,
-6.260328	70s.
-5.561358	71
-6.260328	714
-5.005055	72
-5.959298	72,
-6.260328	72.9
-6.260328	720,
-6.260328	722
-6.260328	722.
-6.260328	727
-5.783207	73
-6.260328	73,000
-5.959298	730
-6.260328	737
-5.306086	74
-6.260328	74,000
-6.260328	74-time
-5.658268	747
-5.959298	747.
-6.260328	747s
-4.637079	75
-5.482177	75,000
-6.260328	75-meter
-6.260328	75-yard
-6.260328	75.
-5.482177	750
-6.260328	750,000.
-5.41523	76
-6.260328	76-year-old
-6.260328	76ers
-5.959298	77
-6.260328	77,
-6.260328	77,822.
-6.260328	77,862
-6.260328	77,862.
-6.260328	770
-6.260328	777
-6.260328	77th
-5.482177	78
-6.260328	78.1
-5.959298	780
-6.260328	780,000
-6.260328	787
-6.260328	787,
-6.260328	78RUS.
-5.959298	79
-5.783207	79,
-5.959298	7:
-6.260328	7:00
-6.260328	7:30.
-6.260328	7?
-6.260328	7?"
-5.561358	7th
-5.959298	7th,
-5.029879	8
-5.783207	8,
-5.181147	8,000
-6.260328	8,000,
-6.260328	8,000-square-foot
-6.260328	8,040,
-6.260328	8,500
-6.260328	8,750
-6.260328	8,800
-6.260328	8-Foot
-6.260328	8-dimensional
-6.260328	8-hour
-6.260328	8-step
-6.260328	8-track,
-6.260328	8-year-old
-5.959298	8.
-5.959298	8.1,
-6.260328	8.3
-6.260328	8.30
-6.260328	8.5
-6.260328	8.8
-4.181147	80
-6.260328	80%
-5.561358	80,
-5.357238	80,000
-6.260328	80,831,
-6.260328	80-odd
-5.783207	80-year-old
-5.959298	80.
-5.959298	80/20
-4.8986	800
-5.482177	800,000
-6.260328	800s
-6.260328	802.11
-6.260328	804,
-6.260328	80s
-6.260328	80s,
-5.783207	80s.
-5.959298	81
-5.218935	82
-6.260328	82,
-5.658268	83
-6.260328	83,000
-6.260328	83.
-5.357238	84
-6.260328	84,000
-6.260328	84-85
-6.260328	844
-5.959298	84k
-6.260328	84k,
-4.917905	85
-5.959298	85,
-5.783207	85,000
-5.783207	85.
-5.783207	850
-6.260328	855.
-6.260328	85th
-5.218935	86
-6.260328	86,
-5.959298	8649.
-6.260328	86th,
-5.783207	87
-5.959298	88
-5.561358	89
-6.260328	89-year-old
-5.959298	8:
-6.260328	8:00
-6.260328	8:30
-6.260328	8:30,
-6.260328	8th
-6.260328	8th,
-5.1142	9
-6.260328	9,
-5.482177	9,000
-6.260328	9,600
-6.260328	9,758,
-6.260328	9-1-1
-6.260328	9-1-1,
-6.260328	9-hour
-6.260328	9.
-6.260328	9.3
-6.260328	9.4
-6.260328	9.5
-6.260328	9.8
-4.880117	9/11
-5.1142	9/11,
-5.357238	9/11.
-6.260328	9/11?"
-4.278057	90
-6.260328	90's.
-5.959298	90,
-5.357238	90,000
-5.561358	90-degree
-6.260328	90-minute
-6.260328	90-odd
-6.260328	90-percent
-6.260328	90.
-5.181147	900
-6.260328	900,
-5.959298	900,000
-6.260328	900-page
-5.783207	90s
-5.959298	90s,
-5.959298	90s.
-5.561358	91
-6.260328	91,
-5.658268	911
-6.260328	911,
-5.561358	92
-6.260328	92,
-5.218935	93
-6.260328	93.
-6.260328	930,000
-5.783207	94
-6.260328	94.
-6.260328	94."
-4.755178	95
-6.260328	95,218,564?
-6.260328	950
-6.260328	956
-6.260328	95;
-6.260328	95th,
-5.41523	96
-6.260328	96,
-6.260328	96,863
-6.260328	960
-5.482177	97
-5.959298	97,
-5.959298	97.
-6.260328	974,169.
-5.084237	98
-6.260328	98,000
-6.260328	98.8
-6.260328	984
-6.260328	987
-6.260328	987.
-4.755178	99
-6.260328	99,
-6.260328	99-cent
-6.260328	99.
-6.260328	99.5
-6.260328	99.7
-5.658268	99.9
-6.260328	99.9%
-6.260328	99.9.
-5.959298	99.999
-6.260328	99.99999
-5.959298	996
-6.260328	997
-6.260328	999
-5.658268	9:
-6.260328	9:10
-6.260328	9:30
-6.260328	9:30.
-6.260328	9th
-5.357238	:
-6.260328	;)
-1.268513	</s>
-99	<s>
-5.357238	=
-5.959298	?
-6.260328	@SallyKohnSucks.
-5.959298	@popupmag
-3.357238	A
-6.260328	A&amp;P?"
-5.482177	A's
-5.658268	A's,
-5.658268	A's.
-6.260328	A)
-6.260328	A+
-4.768966	A,
-6.260328	A-Bomb
-6.260328	A-Team
-6.260328	A-ha!
-5.146385	A.
-5.482177	A.D.
-6.260328	A.E.
-5.959298	A.I.
-6.260328	A.J.P.
-5.959298	A.M.
-6.260328	A.R.
-6.260328	A.U.
-6.260328	A1
-6.260328	A12,
-6.260328	A4
-6.260328	A4,
-6.260328	A4.
-5.658268	A:
-6.260328	A?
-5.959298	AA:
-6.260328	AAA,
-5.561358	AAA:
-6.260328	AARP,
-5.561358	AB
-6.260328	AB.
-6.260328	AB32.
-4.489476	AB:
-5.41523	ABC
-6.260328	ABC:
-5.959298	ABE
-6.260328	ABS
-6.260328	AC
-5.959298	ACE
-6.260328	ACL,
-6.260328	ACLU
-6.260328	ACM
-6.260328	ACR
-6.260328	ACR's
-6.260328	ACTA
-6.260328	ACTA,
-5.959298	AD
-5.783207	ADD
-6.260328	ADD,
-6.260328	ADFA,
-5.561358	ADHD
-5.783207	ADHD,
-5.658268	ADHD.
-6.260328	ADHD:
-6.260328	AFM
-6.260328	AFRICAN
-5.181147	AG:
-5.783207	AH:
-5.306086	AI
-5.959298	AI,
-6.260328	AI-driven.
-6.260328	AI-powered
-4.728849	AIDS
-5.181147	AIDS,
-5.357238	AIDS.
-6.260328	AIDS?
-6.260328	AIDSRide
-6.260328	AIDSRides
-6.260328	AIM,
-5.783207	AK-47
-5.959298	AK-47,
-6.260328	AK-47.
-6.260328	AK-47?
-6.260328	AK-47s,
-5.561358	AK:
-6.260328	ALL
-6.260328	ALL,
-6.260328	ALS.
-6.260328	ALSO,
-5.959298	ALU,
-5.783207	AM
-6.260328	AM,
-5.41523	AM:
-6.260328	AMD,
-6.260328	AMD:
-6.260328	AMP
-6.260328	ANDRILL
-5.959298	AO:
-6.260328	AOL
-5.959298	AOL,
-6.260328	AOL-Time
-6.260328	AOL-style
-6.260328	API
-6.260328	API.
-6.260328	APIs,
-6.260328	APUs
-5.357238	AR:
-6.260328	ARIS
-6.260328	ARPA
-6.260328	ARPA,
-6.260328	ARPA.
-6.260328	ARPANET,
-6.260328	ARS
-6.260328	ARVs
-5.658268	AS:
-6.260328	ASDFASDF
-6.260328	ASDFASDF.
-6.260328	ASPCA
-6.260328	ASPCA.
-6.260328	ASU.
-6.260328	AT
-5.783207	AT&amp;T
-6.260328	AT&amp;T's
-6.260328	ATI,
-5.783207	ATM
-6.260328	ATM,
-6.260328	ATM.
-6.260328	ATP,
-6.260328	ATR
-6.260328	AV
-5.005055	AV:
-6.260328	AVPR1
-6.260328	AZT.
-6.260328	A\and
-6.260328	Aaaaaah.
-6.260328	Aamodt
-6.260328	Aarhus
-5.561358	Aaron
-6.260328	Aaron.
-6.260328	Aaronson
-6.260328	Aaronson's
-6.260328	Aaronson:
-6.260328	Aba
-6.260328	Ababa
-6.260328	Ababa,
-5.959298	Abacha
-6.260328	Abaci,"
-6.260328	Abani
-6.260328	Abani.
-6.260328	Abani."
-6.260328	Abba
-6.260328	Abbey"
-5.658268	Abbott
-6.260328	Abbott,
-6.260328	Abbottabad,
-6.260328	Abby
-6.260328	Abdi
-6.260328	Abdi,
-6.260328	Abdi:
-6.260328	Abdul
-5.959298	Abdul-Latif
-4.79793	Abed
-5.482177	Abed,
-6.260328	Abed,"
-5.783207	Abed.
-6.260328	Abend,
-6.260328	Aberdeen,
-6.260328	Aberdeen.
-5.959298	Abidjan
-6.260328	Abidjan,
-6.260328	Abigail
-6.260328	Abissinia,"
-6.260328	Able
-6.260328	Aboard
-5.783207	Aboriginal
-6.260328	Aborigines
-4.704026	About
-6.260328	Above,"
-6.260328	Above."
-6.260328	Abracadabra.
-6.260328	Abracadabra?
-4.8986	Abraham
-6.260328	Abraham's
-5.41523	Abraham,
-5.306086	Abraham.
-5.783207	Abrahamic
-6.260328	Abrahams
-6.260328	Abrahams,
-6.260328	Abramovich
-6.260328	Abrams.
-6.260328	Abreu
-5.959298	Abreu's
-6.260328	Abreu:
-5.959298	Absent
-5.783207	Absolute
-5.306086	Absolutely
-5.959298	Absolutely,
-5.482177	Absolutely.
-5.181147	Abu
-6.260328	Abuja
-6.260328	Abuzaid
-6.260328	Academic
-6.260328	Academies.
-5.084237	Academy
-6.260328	Academy's
-6.260328	Academy,
-5.482177	Academy.
-6.260328	Acapulco,
-6.260328	Accelerated
-6.260328	Accelerator,
-6.260328	Accelerometers
-5.658268	Accenture
-5.658268	Accept
-5.658268	Accepting
-5.959298	Access
-6.260328	Accessibility
-5.959298	Accidents
-6.260328	Accompanist."
-6.260328	Accor,
-6.260328	Accord.
-5.1142	According
-6.260328	Accordion,
-6.260328	Accords
-6.260328	Accountability
-6.260328	Accra,
-6.260328	Accra.
-6.260328	Accuracy,
-6.260328	Ace
-6.260328	Aceh
-6.260328	Acharya
-6.260328	Achievement
-5.561358	Achilles
-5.561358	Achilles'
-6.260328	Achilles,
-6.260328	Acknowledge,
-6.260328	Acknowledging
-6.260328	Acocella,
-6.260328	Acquisti
-5.482177	Across
-5.1142	Act
-5.260328	Act,
-5.357238	Act.
-6.260328	Acting
-5.783207	Action
-5.959298	Active
-6.260328	Activision.
-6.260328	Activist
-6.260328	Activities
-6.260328	Activity
-5.959298	Actor
-6.260328	Acts
-6.260328	Acts,
-6.260328	Acts?"
-4.959298	Actually
-4.434253	Actually,
-5.357238	Acumen
-6.260328	Acumen's
-5.959298	Ad
-6.260328	Ada
-6.260328	Adafruit
-6.260328	Adalgeirsson,
-4.741814	Adam
-6.260328	Adam's
-6.260328	Adam,
-6.260328	Adam.
-6.260328	Adam?
-6.260328	Adami
-5.658268	Adams
-5.959298	Adams,
-6.260328	Adams.
-6.260328	Adams:
-5.41523	Add
-6.260328	Addams:
-6.260328	Added
-6.260328	Adderall,
-6.260328	Addiction
-5.783207	Adding
-5.959298	Addis
-5.959298	Additionally,
-6.260328	Adenike
-6.260328	Adenikes
-6.260328	Adewale
-6.260328	Adeyemi,
-6.260328	Adherence
-6.260328	Adi,
-5.959298	Adidas
-6.260328	Adidas,
-5.783207	Adinkra
-6.260328	Adiosbarbie.com,
-6.260328	Aditi
-6.260328	Adivasis,
-6.260328	Adjusted
-5.306086	Admin
-6.260328	Admin.
-5.783207	Administration
-5.783207	Administration.
-6.260328	Administrators.
-5.959298	Admiral
-6.260328	Admiral?
-6.260328	Adobe
-5.959298	Adolfo
-6.260328	Adopt
-6.260328	Adoration
-6.260328	Adrenaline,
-6.260328	Adria,
-6.260328	Adria.
-6.260328	Adrian
-6.260328	Adriatic
-6.260328	Adriatic,
-6.260328	Aduaka
-6.260328	Aduaka:
-5.783207	Adult
-6.260328	Adults
-5.783207	Advanced
-6.260328	Advancing
-6.260328	Adventist
-5.959298	Adventures
-6.260328	Advertisements
-6.260328	Advertising
-6.260328	Advocates
-5.959298	Aedes
-6.260328	Aerial
-6.260328	AeroVironment
-5.959298	AeroVironment,
-6.260328	Aeschylus,
-5.783207	Affairs
-6.260328	Affairs,
-6.260328	Affected
-6.260328	Affirmative
-6.260328	Affordable
-6.260328	Affordably.
-4.8986	Afghan
-6.260328	Afghan-Pakistan-India
-4.527934	Afghanistan
-4.692126	Afghanistan,
-4.79793	Afghanistan.
-5.783207	Afghanistan."
-6.260328	Afghanistan;
-5.959298	Afghanistan?
-6.260328	Afghanistan’s
-5.561358	Afghans
-6.260328	Afghans'
-6.260328	AfriGadget
-6.260328	AfriGadget.
-3.892972	Africa
-4.917905	Africa's
-4.181147	Africa,
-5.959298	Africa,"
-4.181147	Africa.
-5.959298	Africa."
-5.783207	Africa:
-5.959298	Africa;
-5.783207	Africa?
-6.260328	Africa?"
-4.139754	African
-5.658268	African,
-5.146385	African-American
-6.260328	African-American,
-5.959298	African-American.
-6.260328	African-American."
-5.783207	African-Americans
-6.260328	African-Americans'
-5.658268	African.
-4.741814	Africans
-5.306086	Africans,
-5.783207	Africans.
-6.260328	Africans?"
-6.260328	Afrocentric
-4.029879	After
-5.658268	After,
-6.260328	Afternoons
-6.260328	Afternoons,"
-6.260328	Afterwards
-5.783207	Afterwards,
-6.260328	Afula,
-6.260328	Aga
-5.357238	Again
-4.310938	Again,
-6.260328	Again.
-5.482177	Against
-6.260328	Agamemnon.
-6.260328	Agassi
-5.084237	Age
-6.260328	Age"
-5.482177	Age,
-6.260328	Age,"
-6.260328	Age-Friendly
-5.561358	Age.
-6.260328	Age."
-5.306086	Agency
-5.959298	Agency,
-5.959298	Agency.
-5.959298	Agent
-5.783207	Ages
-5.783207	Ages,
-5.959298	Ages.
-5.959298	Aging
-5.658268	Agloe
-5.482177	Agloe,
-5.561358	Agnes
-6.260328	Agnes,
-5.959298	Agnes.
-6.260328	Agnon
-5.959298	Agra
-6.260328	Agra.
-6.260328	Agrawal
-6.260328	Agricultural
-5.41523	Agriculture
-6.260328	Agritourism,
-6.260328	Agustin's
-6.260328	Ah
-5.658268	Ah!
-5.084237	Ah,
-6.260328	Ah-Salam
-6.260328	Ah-hah.
-6.260328	Aha!
-6.260328	Ahead,
-6.260328	Ahh!
-6.260328	Ahhh
-6.260328	Ahhh.
-6.260328	Ahmad
-5.959298	Ahmad,
-5.783207	Ahmadinejad
-6.260328	Ahmed
-5.959298	Ahmedabad
-6.260328	Ahmedabad,
-5.959298	Ahmedabad.
-6.260328	Ahn
-6.260328	Ahn:
-5.959298	Ai
-5.959298	Aid
-6.260328	Aided
-6.260328	Aiden
-6.260328	Aiden:
-6.260328	Aiello.
-6.260328	Aim
-6.260328	Aimee
-5.658268	Ain't
-4.755178	Air
-6.260328	AirCard,
-6.260328	AirDynamisis,
-6.260328	Airbus,
-6.260328	Airbus;
-5.658268	Aires
-6.260328	Aires,
-5.959298	Aires.
-5.959298	Airlines
-6.260328	Airlines,
-6.260328	Airplane
-6.260328	Airplanes
-5.41523	Airport
-6.260328	Airport,
-6.260328	Airport.
-5.959298	Airs
-5.561358	Airstream
-5.783207	Airstream.
-6.260328	Airways
-6.260328	Airways.
-6.260328	Airy,
-6.260328	Aisha,
-6.260328	Aizenberg,
-5.959298	Ajax
-6.260328	Ajit
-5.959298	Akan
-6.260328	Akira
-6.260328	Akuriyo
-6.260328	Akuriyos
-6.260328	Akyol
-6.260328	Akzidenz-Grotesk,
-4.434253	Al
-6.260328	Al's
-5.959298	Al,
-5.658268	Al-Qaeda
-5.561358	Al-Qaeda,
-5.783207	Al-Qaeda.
-6.260328	Al-jebr
-6.260328	Alabama
-5.783207	Alabama,
-5.783207	Alabama.
-6.260328	Alabama."
-6.260328	Alaikum.
-6.260328	Alamieyeseigha
-6.260328	Alamieyeseigha,
-5.959298	Alamos
-5.959298	Alams
-5.218935	Alan
-6.260328	Alanna
-5.357238	Alaska
-6.260328	Alaska's
-5.482177	Alaska,
-5.658268	Alaska.
-6.260328	Alaskan
-6.260328	Alaveteli,
-5.783207	Albania
-5.959298	Albania,
-6.260328	Albania.
-6.260328	Albanian
-6.260328	Albanians
-5.959298	Albany
-6.260328	Albatross
-5.260328	Albert
-6.260328	Albert,
-5.41523	Alberta
-6.260328	Alberta,
-6.260328	Alberta.
-5.561358	Alberto
-6.260328	Albertopolis
-6.260328	Albertopolis.
-6.260328	Albinos."
-6.260328	Albright
-6.260328	Albright,
-6.260328	Albright:
-5.783207	Album"
-6.260328	Album,"
-6.260328	Album."
-6.260328	Albums
-6.260328	Albuquerque
-6.260328	Albuquerque's
-6.260328	Albuquerque,
-6.260328	Alcatraz
-6.260328	Alcatraz,
-6.260328	Alcazar.
-6.260328	Alcindor
-6.260328	Alcoholics
-6.260328	Alcorn
-6.260328	Alda:
-6.260328	Aldebaran
-6.260328	Aldo
-5.959298	Aldous
-6.260328	Aldrich
-5.783207	Aldrin
-6.260328	Aldrin,
-5.218935	Alec
-6.260328	Alec's
-5.959298	Alejandro
-6.260328	Alemseged
-6.260328	Aleph
-6.260328	Aleph,"
-6.260328	Aleppo,
-6.260328	Alert
-6.260328	Alessandra,
-6.260328	Alessandro
-6.260328	Alessi
-5.959298	Alessi,
-5.959298	Alessi.
-5.260328	Alex
-6.260328	Alex,
-5.959298	Alex.
-6.260328	Alexa
-5.357238	Alexander
-6.260328	Alexandre,
-6.260328	Alexandria.
-5.658268	Alexis
-6.260328	Alexis,
-6.260328	Alexis.
-5.260328	Alfred
-6.260328	Algarve,
-5.783207	Algeria,
-6.260328	Algeria.
-5.783207	Algerian
-6.260328	Algerians
-6.260328	Algonquin
-6.260328	Algorithms
-5.783207	Alhurra
-5.658268	Ali
-5.959298	Ali,
-6.260328	Ali-type
-6.260328	Ali.
-6.260328	Ali:
-5.482177	Alice
-6.260328	Alice's
-5.783207	Alice,
-6.260328	Alice.
-6.260328	Alice:
-6.260328	Alicia
-6.260328	Alicia,
-6.260328	Aliens.
-6.260328	Aliph
-5.658268	Alisa
-5.959298	Alisa's
-5.783207	Alison
-6.260328	Aljazeera.net,
-3.599463	All
-6.260328	All,
-6.260328	All-Stars
-6.260328	Allah,
-5.959298	Allah."
-6.260328	Allama
-5.306086	Allan
-6.260328	Allan,
-6.260328	Allegory
-5.306086	Allen
-6.260328	Allen"
-5.783207	Allen,
-6.260328	Allen.
-6.260328	Allen;
-6.260328	Allende's
-6.260328	Alleviating
-5.959298	Alley
-5.959298	Alley"
-6.260328	Alley,
-5.783207	Alley,"
-6.260328	Alley?"
-5.482177	Alliance
-6.260328	Allianz
-5.658268	Alligator
-6.260328	Alligator,
-5.561358	Allison
-5.959298	Allison,
-6.260328	AlloBrain.
-5.959298	AlloSphere
-6.260328	AlloSphere,
-5.783207	AlloSphere.
-6.260328	AlloSphere:
-5.959298	Allow
-5.959298	Allowing
-5.959298	Ally
-6.260328	Alma-Tadema
-6.260328	Alma-Tadema.
-5.959298	Almighty
-4.938109	Almost
-6.260328	Almost,
-6.260328	Aloha.
-5.482177	Along
-5.959298	Alongside
-6.260328	Alonzo
-6.260328	Alors
-6.260328	Alpers
-6.260328	Alpha
-6.260328	Alphabet
-6.260328	Alphabets"
-6.260328	Alpine
-5.482177	Alps
-5.959298	Alps,
-5.146385	Already
-5.658268	Already,
-5.783207	Alright
-5.482177	Alright,
-5.783207	Alright.
-5.658268	Alright?
-6.260328	Alrighty,
-6.260328	Alrighty.
-4.938109	Also
-4.647544	Also,
-6.260328	Altay
-6.260328	Altea,
-6.260328	Alternatively,
-6.260328	Alternatives,
-4.917905	Although
-5.561358	Although,
-6.260328	Althusser
-6.260328	Althusserian
-6.260328	Altiplano
-6.260328	Altiplano,
-5.959298	Alto
-5.959298	Alto,
-5.959298	Altos
-6.260328	Aluminum
-6.260328	Alvarez,
-5.959298	Alvaro
-5.658268	Alvin
-6.260328	Alvin,
-5.783207	Always
-5.959298	Always,
-6.260328	Alyosha:
-4.783207	Alzheimer's
-5.306086	Alzheimer's,
-5.482177	Alzheimer's.
-5.357238	Alzheimer’s
-6.260328	Alzheimer’s.
-5.357238	Am
-6.260328	Amadeus
-5.959298	Amanda
-6.260328	Amanda,
-5.959298	Amartya
-6.260328	Amateurs
-6.260328	Amazed
-5.482177	Amazing
-5.783207	Amazing.
-6.260328	Amazingly,
-4.828964	Amazon
-5.959298	Amazon's
-5.029879	Amazon,
-6.260328	Amazon-scale
-5.561358	Amazon.
-5.959298	Amazon.com
-6.260328	Ambady,
-6.260328	Ambassador
-6.260328	Ambassador's
-6.260328	Amber
-6.260328	Amboseli.
-5.959298	Ambrogio
-6.260328	Ambulances
-5.959298	Amen.
-6.260328	Amendment.
-4.022282	America
-6.260328	America"
-4.862388	America's
-4.273556	America,
-4.320809	America.
-5.482177	America."
-6.260328	America:
-5.959298	America;
-6.260328	America?
-3.781762	American
-6.260328	American's
-5.306086	American,
-6.260328	American-Irish;
-6.260328	American-Italian;
-6.260328	American-accented
-6.260328	American-made
-6.260328	American-made,
-5.260328	American.
-6.260328	American."
-6.260328	American:
-6.260328	American;
-6.260328	Americanization.
-6.260328	Americanness
-6.260328	Americano,
-4.29654	Americans
-4.845355	Americans,
-5.029879	Americans.
-6.260328	Americans:
-6.260328	Americans;
-6.260328	Americans?
-5.783207	Americas
-5.658268	Americas,
-6.260328	Americas.
-6.260328	Americas;
-6.260328	Ames
-6.260328	Ames,
-6.260328	Amharic,
-5.783207	Ami
-6.260328	Amiga;
-6.260328	Amin.
-6.260328	Amira
-6.260328	Amira.
-6.260328	Amis
-5.658268	Amitabha
-6.260328	Amitabha's
-5.959298	Amjad
-5.959298	Amjad.
-6.260328	Amjad;
-5.783207	Amnesty,
-6.260328	Amo
-5.658268	Among
-5.959298	Amongst
-5.658268	Amory
-6.260328	Amphetamines.
-5.959298	Amplitude
-6.260328	Amr
-6.260328	Amrapali's
-6.260328	Amritsar,
-5.357238	Amsterdam
-5.783207	Amsterdam,
-5.959298	Amsterdam.
-6.260328	Amsterdam:
-6.260328	Amundsen,
-6.260328	Amusing?
-4.981575	Amy
-6.260328	Amy's
-5.783207	Amy,
-6.260328	Amy-Jo
-6.260328	Amy.
-6.260328	Amy?
-6.260328	Amyris,
-4.330909	An
-6.260328	Ana
-6.260328	Ana.
-6.260328	Anaheim,
-6.260328	Analgesics
-6.260328	Analyze
-5.181147	Anas
-5.959298	Anas'
-6.260328	Anas.
-6.260328	Anas:
-5.959298	Anas]
-6.260328	Anasazi
-6.260328	Anasazi,
-6.260328	Anastasia's
-6.260328	Anatomists
-5.959298	Anatotitan.
-6.260328	Anatotitan:
-5.783207	Ancient
-6.260328	Ancients
-2.04345	And
-4.009908	And,
-5.783207	Anders
-5.959298	Andersen
-6.260328	Andersen's
-5.41523	Anderson
-5.658268	Anderson,
-5.783207	Anderson.
-4.579087	Anderson:
-5.959298	Andes
-5.959298	Andes,
-6.260328	Andhra
-6.260328	Andraka
-6.260328	Andras
-5.959298	Andrea
-5.959298	Andrea,
-5.959298	Andreas
-5.959298	Andreessen
-5.959298	Andres
-6.260328	Andres.
-5.029879	Andrew
-5.959298	Andrew,
-6.260328	Andrew?
-6.260328	Andrews
-6.260328	Andrews.
-5.959298	Android
-5.658268	Android,
-6.260328	Androids,
-5.959298	Andromeda,
-6.260328	Andromeda.
-6.260328	André
-5.561358	Andy
-6.260328	Anecdotally,
-5.783207	Anesthesia
-6.260328	Anesthesiology
-6.260328	Ang
-6.260328	Angel
-5.959298	Angela
-5.959298	Angela,
-5.029879	Angeles
-5.1142	Angeles,
-5.482177	Angeles.
-6.260328	Angeles;
-6.260328	Angelina
-6.260328	Angelini
-6.260328	Angella
-6.260328	Angels
-6.260328	Angels."
-6.260328	Anghiari"
-5.959298	Anghiari,"
-6.260328	Anghiari,”
-6.260328	Angier
-6.260328	Angiology
-6.260328	Anglia
-6.260328	Anglican
-5.959298	Angola
-6.260328	Angola,
-6.260328	Angola.
-6.260328	Angor
-6.260328	Angrigami,
-6.260328	Angrigami.
-5.959298	Angry
-6.260328	Anholt
-6.260328	Aniboom,
-5.783207	Anil
-6.260328	Anima"
-5.658268	Animal
-5.783207	Animals
-6.260328	Animals,
-5.959298	Animaris
-5.783207	Animation"]
-6.260328	Animation,
-6.260328	Animators
-6.260328	Animists,
-6.260328	Anita
-6.260328	Ankara
-5.146385	Ann
-6.260328	AnnMarie
-5.658268	Anna
-5.959298	Annalisa
-5.658268	Annan
-6.260328	Annan,
-5.482177	Anne
-6.260328	Anne-Marie
-6.260328	Anne."
-6.260328	Annenberg
-6.260328	Annie
-6.260328	Annotated
-6.260328	Announce
-5.357238	Announcer:
-5.306086	Anonymous
-5.959298	Anonymous,
-6.260328	Anonymous:
-6.260328	Anote
-4.235022	Another
-5.959298	Another,
-6.260328	Ansari
-6.260328	Answer:
-6.260328	Answering
-5.959298	Anta
-5.482177	Antarctic
-6.260328	Antarctic,
-6.260328	Antarctic.
-5.783207	Antarctica
-5.561358	Antarctica,
-5.306086	Antarctica.
-6.260328	Anthems,
-6.260328	Anthon
-5.561358	Anthony
-5.959298	Anthony,
-6.260328	Anthony.
-6.260328	Anthony."
-6.260328	Anthrax
-6.260328	Anthropic
-5.959298	Anthropocene,
-5.783207	Anthropologist
-6.260328	Anthropology
-6.260328	Anti
-6.260328	Anti-Corruption
-6.260328	Antiquated
-5.561358	Antoine
-6.260328	Anton
-6.260328	Antonelli,
-5.783207	Antonio
-6.260328	Antonio:
-5.783207	Ants
-6.260328	Antz,
-5.783207	Anuj
-5.181147	Anwar
-4.728849	Any
-4.880117	Anybody
-5.357238	Anybody?
-6.260328	Anybody?"
-6.260328	Anyhow,
-5.005055	Anyone
-5.658268	Anyone?
-5.357238	Anything
-6.260328	Anytime
-5.959298	Anyway
-4.544325	Anyway,
-5.783207	Anyway.
-5.959298	Anyways,
-5.561358	Anywhere
-6.260328	Ao
-6.260328	Aomame
-5.783207	Apache
-5.959298	Aparna
-5.959298	Apart
-6.260328	Apart,"
-6.260328	Apartments,
-5.959298	Apatzingán
-6.260328	Apes
-6.260328	Apes'
-6.260328	Apes,
-6.260328	Apex,
-6.260328	Apexes,
-6.260328	Aphorism
-5.005055	Apollo
-6.260328	Apollo's
-6.260328	Apollo,
-6.260328	Apollo.
-6.260328	Apollonia.
-5.783207	Apollonian
-6.260328	Apollonian,
-6.260328	Apologies
-6.260328	Apopo,
-5.658268	App
-6.260328	Appachan
-6.260328	Appachan,
-6.260328	Appachan:
-6.260328	Appalachia
-5.959298	Appalachian
-6.260328	Appalachians
-6.260328	Appalachians,
-5.783207	Apparently
-5.959298	Apparently,
-6.260328	Appian
-6.260328	Applause
-4.680544	Apple
-5.41523	Apple's
-5.482177	Apple,
-6.260328	Apple-,
-5.658268	Apple.
-6.260328	Applebaum:
-6.260328	Applebee's,
-6.260328	Appleseed
-6.260328	Application
-6.260328	Applications
-6.260328	Applied
-5.959298	Apply
-6.260328	Appreciate
-6.260328	Appreciate,
-6.260328	Apprentice."
-6.260328	ApproTEC
-5.783207	ApproTEC,
-6.260328	Approaching
-6.260328	Approaching.
-6.260328	Appropriation
-6.260328	Approximate
-6.260328	Approximately
-6.260328	Apps
-5.146385	April
-6.260328	April"
-6.260328	April's
-5.658268	April,
-5.561358	April.
-6.260328	April?
-6.260328	Apt
-5.959298	Aqua
-6.260328	Aquarium
-5.783207	Aquarium.
-5.959298	Aquarius,
-6.260328	Aquarius.
-6.260328	Aquatics
-6.260328	Aqueduct,
-6.260328	Aqueducts
-4.346514	Arab
-5.357238	Arabia
-5.783207	Arabia,
-5.561358	Arabia.
-6.260328	Arabias,
-5.146385	Arabic
-6.260328	Arabic's
-6.260328	Arabic)
-5.658268	Arabic,
-6.260328	Arabic-medium
-5.41523	Arabic.
-6.260328	Arabic?
-5.658268	Arabs
-6.260328	Arabs,
-6.260328	Arabs.
-6.260328	Arabs."
-6.260328	Arad,
-5.41523	Aral
-6.260328	Arana,
-5.959298	Aravena
-6.260328	Aravena:
-5.561358	Aravind
-5.959298	Aravind,
-5.959298	Aravind.
-6.260328	Arawak
-6.260328	Arberry
-6.260328	Arby's
-6.260328	Arcade
-6.260328	Arcadian
-5.959298	Archbishop
-6.260328	Archduke
-6.260328	Archer
-6.260328	Arches
-5.084237	Archie
-6.260328	Archie.
-6.260328	Archimedian
-6.260328	Archipelago
-5.658268	Architect
-6.260328	Architect,"
-6.260328	Architect?
-6.260328	Architects
-6.260328	Architects,
-6.260328	Architects.
-5.783207	Architectural
-5.561358	Architecture
-5.959298	Archives
-6.260328	Archon
-4.981575	Arctic
-5.959298	Arctic,
-5.959298	Arctic.
-6.260328	Arduino
-4.181147	Are
-5.783207	Area
-6.260328	Area,
-6.260328	Area.
-6.260328	Areas.
-5.959298	Areca
-5.783207	Aremeyaw
-5.357238	Aren't
-5.959298	Arena
-6.260328	Aretha
-5.783207	Argentina
-5.783207	Argentina,
-5.783207	Argentina.
-5.959298	Argentine
-5.959298	Argentinean
-6.260328	Argentinean.
-6.260328	Argentinian
-6.260328	Argo
-6.260328	Arguably
-6.260328	Arguing
-6.260328	Argus
-6.260328	Ariadne
-6.260328	Ariadne's
-4.880117	Ariana
-6.260328	Arias
-6.260328	Arias,
-5.959298	Ariel
-5.959298	Ariel:
-5.658268	Ariely
-6.260328	Ariely?
-6.260328	Aris
-5.658268	Aristotle
-6.260328	Aristotle's
-5.959298	Aristotle,
-5.783207	Arizona
-5.658268	Arizona,
-5.658268	Arizona.
-5.658268	Arkansas
-5.482177	Arkansas,
-6.260328	Arkansas?
-6.260328	Arlington,
-6.260328	Arm
-6.260328	Armada.
-6.260328	Armada."
-6.260328	Armament
-6.260328	Armani.
-5.959298	Armed
-6.260328	Armenian
-6.260328	Armor
-6.260328	Armour,
-5.41523	Armstrong
-6.260328	Armstrong's
-5.959298	Armstrong,
-6.260328	Armstrong-style
-6.260328	Armstrong.
-6.260328	Armstrong;
-5.181147	Army
-5.959298	Army"
-5.959298	Army,
-5.658268	Army.
-6.260328	Army:
-6.260328	Arndt,
-6.260328	Arno
-6.260328	Arno,
-5.959298	Arnold
-6.260328	Aron
-5.357238	Around
-6.260328	Arr!
-6.260328	Array
-6.260328	Array,
-6.260328	Arredondo
-5.783207	Arrest
-6.260328	Arrhenius'
